~o
<STREAMINFO> 1 39
<VECSIZE> 39<NULLD><MFCC_D_A_0><DIAGC>
~s "silst"
<MEAN> 39
 -9.840780e+00 -2.777400e+00 -5.746628e-01 5.318852e-02 3.363210e+00 -1.866935e+00 -2.462209e-01 1.154432e+00 1.470528e+00 -1.481621e+00 -4.920701e-01 -9.031853e-01 4.512546e+01 -1.149227e-01 -3.463161e-02 -3.682123e-02 -5.624080e-02 -7.718348e-02 -3.830438e-02 -6.898410e-03 5.137186e-03 3.412878e-02 8.344654e-02 6.299685e-02 3.586914e-02 -9.465763e-02 1.888423e-02 2.531978e-02 1.170901e-02 4.938048e-03 1.432551e-02 2.375186e-02 1.630820e-02 -6.641545e-03 -2.868384e-04 1.716319e-02 6.279957e-03 -2.523980e-03 2.234701e-02
<VARIANCE> 39
 9.364197e+00 2.669506e+01 1.527469e+01 1.565915e+01 1.441474e+01 2.211836e+01 1.724046e+01 1.754425e+01 1.926318e+01 1.677342e+01 1.393436e+01 1.242156e+01 3.042063e+01 3.653683e-01 7.724832e-01 7.494441e-01 7.827314e-01 8.518215e-01 1.089160e+00 1.070130e+00 1.085611e+00 1.121470e+00 1.115616e+00 1.008854e+00 8.402038e-01 4.809335e-01 6.128438e-02 1.106686e-01 1.389901e-01 1.484013e-01 1.646725e-01 1.979017e-01 2.065405e-01 2.142298e-01 2.211941e-01 2.194237e-01 1.993625e-01 1.687101e-01 6.870236e-02
<GCONST> 8.159064e+01
~h "a"
<BEGINHMM>
<NUMSTATES> 5
<STATE> 2
<MEAN> 39
 -1.686435e+00 -5.156232e+00 -1.430350e+00 -6.224448e+00 2.461033e+00 -1.997025e+00 -3.354603e+00 8.352726e-01 3.700901e+00 8.714665e-01 -2.409898e+00 -6.357080e+00 6.706547e+01 9.516006e-01 -1.209701e+00 -6.941910e-01 -1.125379e+00 3.528910e-02 5.070515e-01 -1.645489e-01 7.960808e-01 7.076902e-01 -7.228313e-02 -4.822960e-01 -1.103351e+00 2.007053e+00 -2.302768e-01 2.953579e-01 2.464732e-01 4.022579e-01 6.857319e-02 9.841271e-03 1.263752e-01 -2.243714e-01 -2.751610e-01 -2.840293e-02 8.371495e-02 1.753721e-01 -6.240880e-01
<VARIANCE> 39
 2.118380e+01 2.270860e+01 2.203451e+01 3.018336e+01 3.367198e+01 4.449121e+01 4.729080e+01 3.855804e+01 3.764576e+01 3.148816e+01 3.735099e+01 2.378128e+01 4.061554e+01 2.717577e+00 2.296856e+00 2.159940e+00 2.673490e+00 3.039014e+00 3.024472e+00 3.095851e+00 3.437098e+00 2.977635e+00 2.430232e+00 2.355084e+00 1.850250e+00 3.025445e+00 4.189926e-01 3.593543e-01 3.396116e-01 4.764208e-01 4.802538e-01 5.627081e-01 4.991397e-01 5.317183e-01 4.547535e-01 3.970318e-01 4.548877e-01 3.659104e-01 4.286911e-01
<GCONST> 1.187690e+02
<STATE> 3
<MEAN> 39
 -4.104948e-01 -7.055737e+00 -2.722295e+00 -7.482542e+00 3.818063e+00 4.426735e-01 -3.004710e+00 1.217603e+00 4.158349e+00 -1.201652e-01 -2.709854e+00 -8.445830e+00 6.914259e+01 8.800833e-02 1.386929e-01 9.003811e-02 2.015510e-01 1.559536e-01 -1.479798e-02 2.328558e-02 -2.985389e-02 -1.289983e-01 -4.233268e-02 5.878158e-02 8.715618e-02 -2.727810e-01 5.408679e-03 3.322217e-01 2.518021e-01 2.751413e-01 -1.077043e-01 -1.663559e-01 -7.604954e-02 -1.363342e-01 -1.480620e-01 8.622977e-02 1.085149e-01 2.268880e-01 -3.897367e-01
<VARIANCE> 39
 8.755435e+00 1.936113e+01 2.086333e+01 2.912427e+01 3.430403e+01 4.050526e+01 4.444688e+01 4.706741e+01 4.065013e+01 3.227692e+01 3.121899e+01 2.314531e+01 2.703995e+01 3.159851e-01 6.813036e-01 8.525342e-01 8.848339e-01 1.314419e+00 1.611368e+00 1.330823e+00 1.364977e+00 1.110941e+00 1.006212e+00 1.177048e+00 9.326897e-01 4.690731e-01 9.332652e-02 1.558472e-01 1.508198e-01 1.882605e-01 2.112630e-01 2.048763e-01 2.397688e-01 3.033341e-01 2.301610e-01 1.927923e-01 1.918809e-01 1.856217e-01 1.388028e-01
<GCONST> 9.216135e+01
<STATE> 4
<MEAN> 39
 -1.378485e+00 -2.632558e+00 -1.192166e+00 -1.901281e+00 6.341408e+00 2.259377e-01 -1.755158e+00 5.531982e-01 3.259214e+00 -5.158638e-01 -2.693573e+00 -5.470916e+00 5.970528e+01 -1.907954e-01 1.122193e+00 8.491754e-01 1.007619e+00 -3.387524e-01 -3.023464e-01 -8.963054e-02 -2.206745e-01 -6.103677e-01 1.386911e-01 2.217752e-01 6.671566e-01 -1.878693e+00 -1.020809e-01 1.756690e-01 1.526042e-01 9.692433e-02 -1.111649e-01 4.240537e-02 8.163270e-02 -1.507183e-01 -1.252381e-01 -1.402068e-02 2.970684e-02 4.884732e-02 -2.626943e-01
<VARIANCE> 39
 1.775811e+01 2.720931e+01 2.474643e+01 4.676764e+01 5.038345e+01 5.143841e+01 4.753263e+01 4.162646e+01 4.219640e+01 3.614685e+01 3.078186e+01 2.387012e+01 1.161488e+02 1.377059e+00 2.465248e+00 2.146497e+00 2.490506e+00 2.713979e+00 2.419309e+00 2.517325e+00 2.511782e+00 2.653636e+00 2.018878e+00 2.014346e+00 1.606567e+00 2.035941e+00 1.980338e-01 4.013370e-01 3.575879e-01 4.482465e-01 4.419460e-01 4.120381e-01 4.555371e-01 4.725808e-01 4.310220e-01 3.706615e-01 3.589706e-01 2.739788e-01 3.968685e-01
<GCONST> 1.165550e+02
<TRANSP> 5
 0.000000e+00 1.000000e+00 0.000000e+00 0.000000e+00 0.000000e+00
 0.000000e+00 6.223550e-01 3.776450e-01 0.000000e+00 0.000000e+00
 0.000000e+00 0.000000e+00 7.700383e-01 2.299618e-01 0.000000e+00
 0.000000e+00 0.000000e+00 0.000000e+00 6.695935e-01 3.304065e-01
 0.000000e+00 0.000000e+00 0.000000e+00 0.000000e+00 0.000000e+00
<ENDHMM>
~h "b"
<BEGINHMM>
<NUMSTATES> 5
<STATE> 2
<MEAN> 39
 3.254670e+00 5.026130e+00 3.478789e+00 -2.185543e+00 3.448764e-01 1.151096e+00 -2.751268e+00 -4.465600e+00 -4.015397e+00 7.237325e-01 2.863355e+00 -2.633801e+00 5.317040e+01 -6.208460e-01 2.548983e+00 5.116072e-01 1.489475e+00 7.243428e-01 -2.744040e-01 1.094817e+00 3.120544e-02 1.009785e-02 -3.760651e-01 -7.063631e-01 4.583608e-01 -3.439070e+00 -7.180749e-01 -6.602454e-01 2.147311e-02 -8.767919e-02 -1.019266e-01 -3.223974e-01 -1.436610e-01 2.796865e-01 3.997925e-01 -7.600391e-02 -1.743593e-01 -4.295823e-02 7.925593e-01
<VARIANCE> 39
 2.173225e+01 2.907904e+01 2.090141e+01 4.750019e+01 2.346813e+01 3.214420e+01 3.229098e+01 2.772841e+01 3.388543e+01 2.506999e+01 2.757508e+01 1.808834e+01 5.115401e+01 2.222353e+00 3.481381e+00 2.627013e+00 4.212302e+00 2.886984e+00 4.199647e+00 3.152852e+00 3.202265e+00 3.513111e+00 2.887460e+00 2.786081e+00 1.781332e+00 4.381084e+00 2.949005e-01 7.427081e-01 3.483627e-01 6.039597e-01 4.699673e-01 4.907790e-01 4.966961e-01 4.692890e-01 4.981441e-01 4.175124e-01 4.622360e-01 3.082797e-01 8.808042e-01
<GCONST> 1.203486e+02
<STATE> 3
<MEAN> 39
 -2.603728e+00 8.278502e+00 6.054020e+00 3.103332e+00 2.156150e+00 -1.282008e+00 -1.099388e+00 -3.073537e+00 -2.398862e+00 -5.501642e-01 -1.981765e-01 -1.945713e+00 4.574605e+01 -1.647470e+00 -1.219014e+00 -3.775593e-01 1.199093e-01 5.163051e-01 -1.989956e-01 2.079275e-01 3.423921e-01 5.805624e-01 -2.964396e-01 -1.665443e-01 2.217188e-01 5.294224e-01 9.382875e-02 -1.053420e+00 -3.928500e-01 -7.245961e-01 -2.581409e-01 1.420600e-01 -1.991829e-01 5.584219e-02 8.808182e-02 1.051246e-01 3.119408e-01 -4.638987e-02 1.459785e+00
<VARIANCE> 39
 2.696474e+01 1.889448e+01 1.298901e+01 2.014281e+01 2.037819e+01 2.081055e+01 2.100871e+01 2.059781e+01 2.248795e+01 1.653803e+01 1.578339e+01 1.161645e+01 3.864050e+01 2.022356e+00 3.391467e+00 2.450327e+00 3.680605e+00 2.198287e+00 2.591541e+00 2.232017e+00 2.121827e+00 2.257555e+00 1.865499e+00 1.956571e+00 1.368183e+00 5.543877e+00 3.710896e-01 6.753236e-01 4.519845e-01 5.263758e-01 5.620718e-01 6.270913e-01 5.327793e-01 4.879080e-01 4.868785e-01 4.364461e-01 4.068756e-01 3.085570e-01 6.490791e-01
<GCONST> 1.126712e+02
<STATE> 4
<MEAN> 39
 -7.263810e+00 -1.293453e+00 1.391589e+00 -4.191836e-01 3.224498e+00 -1.177921e+00 -5.419046e-03 -1.900283e+00 4.712667e-01 -2.953210e-01 1.179773e+00 -1.008082e+00 5.508061e+01 -2.514241e-02 -1.453291e+00 -7.655413e-01 -1.357836e+00 -1.953164e-01 4.635578e-01 1.261437e-02 2.095258e-01 3.585002e-01 3.209645e-02 4.523253e-01 -2.869543e-02 2.543300e+00 5.835550e-01 4.663153e-01 2.360119e-01 -1.900607e-01 -2.816229e-01 1.842126e-01 -2.041371e-01 -8.384823e-02 -2.376325e-01 6.915786e-02 5.014894e-02 -2.124243e-01 -4.197268e-02
<VARIANCE> 39
 3.804803e+01 2.665058e+01 3.082912e+01 2.914795e+01 2.534364e+01 3.202976e+01 2.604200e+01 2.244507e+01 2.332915e+01 1.856086e+01 1.652323e+01 1.272045e+01 6.979575e+01 4.174550e+00 4.752955e+00 3.596693e+00 4.389684e+00 3.507274e+00 3.728922e+00 3.182304e+00 2.699183e+00 2.606107e+00 2.179670e+00 2.239926e+00 1.771769e+00 6.170842e+00 4.996468e-01 8.280648e-01 5.539827e-01 7.036784e-01 6.372625e-01 7.417368e-01 6.005246e-01 5.000705e-01 4.948104e-01 4.496403e-01 4.233841e-01 3.268966e-01 9.567218e-01
<GCONST> 1.222363e+02
<TRANSP> 5
 0.000000e+00 1.000000e+00 0.000000e+00 0.000000e+00 0.000000e+00
 0.000000e+00 4.633900e-01 5.366101e-01 0.000000e+00 0.000000e+00
 0.000000e+00 0.000000e+00 5.880068e-01 4.119932e-01 0.000000e+00
 0.000000e+00 0.000000e+00 0.000000e+00 5.710649e-01 4.289351e-01
 0.000000e+00 0.000000e+00 0.000000e+00 0.000000e+00 0.000000e+00
<ENDHMM>
~h "c"
<BEGINHMM>
<NUMSTATES> 5
<STATE> 2
<MEAN> 39
 -7.513665e+00 7.052955e+00 7.411611e+00 1.902989e+00 3.744548e+00 -3.459278e+00 -2.453984e+00 -2.267708e+00 -6.368608e-01 -5.557071e-01 -7.904304e-01 -1.424702e+00 4.937952e+01 -2.205167e+00 -3.230006e-01 -6.795328e-01 -5.567704e-01 5.707833e-01 5.820516e-01 5.680468e-01 1.166065e-01 -1.414439e-01 -2.229341e-01 1.899999e-01 9.056380e-02 -4.002939e-01 -4.844385e-01 -6.156856e-01 -3.348584e-01 -5.463012e-01 -2.498868e-01 -1.677931e-02 -1.231415e-01 1.084538e-01 8.717207e-02 1.335268e-02 1.038496e-01 3.559844e-02 1.216767e+00
<VARIANCE> 39
 3.534502e+01 3.008644e+01 2.328792e+01 2.227130e+01 2.775881e+01 3.208867e+01 3.224575e+01 2.268154e+01 2.387855e+01 1.842368e+01 1.579686e+01 1.314030e+01 6.394761e+01 5.081556e+00 5.553371e+00 3.029850e+00 4.007355e+00 3.480489e+00 3.062728e+00 3.044393e+00 2.735343e+00 2.620759e+00 2.167950e+00 1.937018e+00 1.550344e+00 1.271454e+01 6.717853e-01 7.830411e-01 4.333517e-01 5.174635e-01 6.107600e-01 5.937301e-01 4.993861e-01 4.801775e-01 5.127164e-01 3.856026e-01 3.572229e-01 3.153304e-01 1.305399e+00
<GCONST> 1.214494e+02
<STATE> 3
<MEAN> 39
 -2.203476e+01 1.920087e+00 1.706861e+00 -6.598900e+00 3.519304e+00 -2.776902e+00 -1.102162e+00 -6.541960e-01 7.488840e-02 -1.001266e+00 1.031497e+00 -1.418724e-01 6.177798e+01 -1.761256e+00 -7.984952e-01 -7.161490e-01 -1.311725e+00 -8.307532e-01 -5.104790e-01 1.304549e-01 6.857151e-01 6.748339e-01 -5.205690e-02 2.853293e-01 4.917003e-01 2.309514e+00 1.272876e+00 2.067700e-02 3.704923e-01 6.540901e-01 -1.773330e-01 -1.610118e-01 -4.486867e-02 -2.871469e-02 8.527875e-02 -6.082396e-04 -2.321366e-01 -9.956773e-02 -7.391260e-01
<VARIANCE> 39
 2.344629e+01 2.206546e+01 2.548197e+01 1.916420e+01 2.645217e+01 2.633746e+01 2.219757e+01 1.971586e+01 1.525207e+01 1.491059e+01 1.155173e+01 1.015069e+01 2.873202e+01 5.521114e+00 2.162218e+00 2.485097e+00 2.731604e+00 2.164025e+00 2.293068e+00 1.902416e+00 1.968185e+00 1.743500e+00 1.390415e+00 1.309079e+00 1.125210e+00 4.394024e+00 7.162070e-01 5.139508e-01 4.568125e-01 4.500690e-01 5.504690e-01 5.357195e-01 4.019209e-01 4.014910e-01 3.435135e-01 3.228866e-01 3.089252e-01 2.508970e-01 5.056854e-01
<GCONST> 1.092993e+02
<STATE> 4
<MEAN> 39
 -1.717946e+01 -2.988990e+00 1.527510e+00 -4.995419e+00 1.000949e+00 -4.576647e+00 -9.140623e-01 1.410893e+00 3.446868e+00 -1.905768e+00 -8.511651e-01 4.552020e-01 6.261098e+01 3.514889e+00 -5.538354e-01 4.622586e-01 1.291325e+00 1.728296e-01 5.688505e-02 -3.193130e-01 -2.891187e-01 7.431365e-02 -9.005096e-02 -1.025621e+00 -8.158333e-01 -1.614096e-01 8.283158e-01 4.190905e-01 1.915115e-01 1.232799e-01 1.514136e-01 2.371750e-01 -3.199177e-01 -3.145912e-01 -4.400587e-01 1.508845e-01 3.925577e-02 -3.336875e-01 2.913374e-02
<VARIANCE> 39
 3.684716e+01 2.094633e+01 2.045016e+01 2.354755e+01 2.519914e+01 2.339606e+01 2.681523e+01 2.316799e+01 2.209943e+01 1.873176e+01 2.188820e+01 1.595155e+01 2.871782e+01 3.282556e+00 2.883031e+00 2.799109e+00 2.289100e+00 2.924715e+00 3.296701e+00 2.547731e+00 2.396329e+00 2.519975e+00 2.274188e+00 2.319637e+00 1.735754e+00 1.268976e+00 7.908885e-01 4.008889e-01 3.784379e-01 6.212068e-01 5.646311e-01 6.201825e-01 4.877339e-01 4.778956e-01 4.561102e-01 4.243669e-01 4.892312e-01 3.431277e-01 4.380576e-01
<GCONST> 1.147557e+02
<TRANSP> 5
 0.000000e+00 1.000000e+00 0.000000e+00 0.000000e+00 0.000000e+00
 0.000000e+00 7.748478e-01 2.251522e-01 0.000000e+00 0.000000e+00
 0.000000e+00 0.000000e+00 7.409245e-01 2.590755e-01 0.000000e+00
 0.000000e+00 0.000000e+00 0.000000e+00 6.798604e-01 3.201397e-01
 0.000000e+00 0.000000e+00 0.000000e+00 0.000000e+00 0.000000e+00
<ENDHMM>
~h "d"
<BEGINHMM>
<NUMSTATES> 5
<STATE> 2
<MEAN> 39
 -7.601449e-01 8.309100e+00 7.576892e+00 2.279065e+00 1.512570e+00 -4.953799e+00 -4.192467e+00 -3.627781e+00 -6.109469e-01 1.562535e+00 -1.384875e+00 -3.892522e+00 5.112200e+01 -7.771754e-01 1.386565e+00 -5.038437e-02 7.084666e-01 9.859248e-01 3.376219e-01 7.870029e-01 8.929727e-02 3.150517e-02 -4.258154e-01 -3.067787e-01 3.516192e-01 -2.635614e+00 -6.060703e-01 -1.094542e+00 -3.416907e-01 -6.006651e-01 -1.718246e-01 3.539716e-02 1.630242e-02 1.978604e-01 6.194734e-02 -1.884545e-01 2.358245e-01 2.045800e-01 1.314270e+00
<VARIANCE> 39
 2.627932e+01 2.075670e+01 2.232963e+01 2.494039e+01 3.157499e+01 2.986748e+01 3.730274e+01 3.357265e+01 3.040783e+01 2.621332e+01 2.429034e+01 1.950238e+01 5.537895e+01 2.728966e+00 3.832972e+00 2.870474e+00 3.421472e+00 3.912739e+00 3.586411e+00 3.457121e+00 3.532996e+00 3.260391e+00 3.014454e+00 2.674068e+00 1.970205e+00 5.899837e+00 3.897185e-01 5.917842e-01 3.714679e-01 5.063726e-01 5.723174e-01 5.168742e-01 5.374587e-01 5.445047e-01 5.235681e-01 4.149725e-01 3.773121e-01 3.427239e-01 1.089515e+00
<GCONST> 1.215660e+02
<STATE> 3
<MEAN> 39
 -4.767695e+00 8.111627e+00 7.405164e+00 3.684380e+00 3.960382e+00 -3.147538e+00 -1.690630e+00 -3.256478e+00 -1.356098e+00 -4.610480e-01 -1.302223e+00 -2.395477e+00 4.778075e+01 -2.121648e+00 -2.065130e+00 -1.296618e+00 -1.554960e+00 5.626767e-01 -3.117822e-01 3.779019e-01 6.105101e-01 5.488347e-01 -5.796028e-01 3.557061e-01 7.152403e-01 2.291113e+00 8.120368e-02 -9.053454e-01 -3.115681e-01 -6.764724e-01 -5.423914e-01 -3.324049e-01 -3.580328e-01 1.539880e-01 2.679738e-01 1.900391e-01 1.714929e-01 -6.403600e-02 1.688336e+00
<VARIANCE> 39
 2.644711e+01 2.194167e+01 1.904926e+01 1.760269e+01 2.373537e+01 2.521282e+01 2.544824e+01 2.166965e+01 1.828404e+01 1.722239e+01 1.493604e+01 1.200217e+01 5.978336e+01 2.269560e+00 2.853036e+00 2.485056e+00 3.123682e+00 2.934240e+00 3.243115e+00 2.908486e+00 3.063672e+00 2.564108e+00 2.258499e+00 1.933654e+00 1.686474e+00 5.755147e+00 4.910764e-01 6.297846e-01 5.028402e-01 5.516965e-01 7.319324e-01 6.837376e-01 6.484786e-01 6.173229e-01 6.108336e-01 5.156549e-01 4.526645e-01 3.535679e-01 7.913076e-01
<GCONST> 1.173554e+02
<STATE> 4
<MEAN> 39
 -1.024828e+01 -2.436284e-01 2.100328e+00 -3.407739e+00 3.514975e+00 -6.374861e+00 -1.064189e+00 -1.295922e+00 1.478886e+00 -8.287637e-01 9.322844e-02 -2.182223e-01 6.031599e+01 -8.507925e-02 -1.734473e+00 -1.032625e+00 -1.234716e+00 -5.564692e-01 -6.641367e-01 -6.776225e-01 6.218368e-01 9.195129e-01 2.035612e-01 2.235286e-01 -7.211911e-02 3.474003e+00 1.092832e+00 3.875257e-01 4.082821e-01 4.145956e-01 -4.061438e-01 3.736155e-01 -3.817543e-01 -9.560242e-02 -1.753059e-01 2.646160e-01 -7.405364e-02 -4.771103e-01 -3.886072e-01
<VARIANCE> 39
 2.070883e+01 2.263889e+01 2.437609e+01 2.357806e+01 2.288049e+01 2.681251e+01 2.975662e+01 2.126790e+01 1.968421e+01 1.745563e+01 1.420952e+01 1.271004e+01 5.104935e+01 4.604384e+00 3.640889e+00 3.440077e+00 4.238201e+00 3.476819e+00 3.737832e+00 3.798170e+00 3.590547e+00 3.191593e+00 2.546863e+00 2.534077e+00 2.050659e+00 6.147414e+00 4.663178e-01 6.918263e-01 5.972083e-01 6.531221e-01 7.534374e-01 7.797304e-01 7.304857e-01 6.915287e-01 5.898456e-01 5.498582e-01 4.882417e-01 3.782451e-01 8.938769e-01
<GCONST> 1.220401e+02
<TRANSP> 5
 0.000000e+00 1.000000e+00 0.000000e+00 0.000000e+00 0.000000e+00
 0.000000e+00 4.550148e-01 5.449852e-01 0.000000e+00 0.000000e+00
 0.000000e+00 0.000000e+00 4.035498e-01 5.964502e-01 0.000000e+00
 0.000000e+00 0.000000e+00 0.000000e+00 4.973026e-01 5.026973e-01
 0.000000e+00 0.000000e+00 0.000000e+00 0.000000e+00 0.000000e+00
<ENDHMM>
~h "e"
<BEGINHMM>
<NUMSTATES> 5
<STATE> 2
<MEAN> 39
 -3.052552e+00 -2.375136e+00 1.067167e+01 -2.226316e+00 -7.442891e+00 -8.567378e+00 -5.762547e+00 2.195409e+00 -2.911875e+00 -7.114622e-01 2.351241e+00 -2.384797e+00 6.763416e+01 5.945145e-01 -1.089017e+00 2.640850e-01 -8.086710e-01 -1.416056e+00 -4.717630e-01 -6.071499e-01 1.411931e+00 6.913311e-02 -7.549944e-02 5.307799e-01 -5.758617e-02 1.771417e+00 -1.893272e-01 2.292208e-01 -3.663507e-01 1.603186e-01 4.791326e-01 2.544812e-01 2.789884e-01 -2.840747e-01 1.227589e-01 1.675682e-01 -1.932317e-01 -3.993298e-02 -5.404035e-01
<VARIANCE> 39
 1.115556e+01 2.141500e+01 3.270444e+01 2.413403e+01 3.307151e+01 3.064071e+01 4.431865e+01 4.005219e+01 5.081093e+01 3.144343e+01 3.454618e+01 2.001241e+01 2.838305e+01 2.850795e+00 1.809110e+00 2.209555e+00 1.971418e+00 2.658354e+00 2.378190e+00 3.195908e+00 2.778674e+00 2.851523e+00 2.398541e+00 2.078417e+00 1.498577e+00 1.429671e+00 4.046047e-01 3.129366e-01 3.391473e-01 3.428208e-01 4.537017e-01 3.883869e-01 4.066840e-01 4.670656e-01 4.277081e-01 3.395895e-01 3.592713e-01 2.544192e-01 2.609351e-01
<GCONST> 1.127631e+02
<STATE> 3
<MEAN> 39
 -3.322038e+00 -4.035957e+00 1.021933e+01 -4.027920e+00 -9.276868e+00 -7.111548e+00 -4.431805e+00 4.225267e+00 -1.897441e+00 -6.215572e-01 2.707415e+00 -2.619504e+00 6.938972e+01 7.569746e-02 4.543548e-03 -2.026603e-01 3.427957e-02 2.139898e-01 1.178956e-02 1.820955e-01 1.241872e-01 8.872584e-02 4.362535e-02 -1.370522e-01 -7.013552e-02 -1.063559e-01 4.635854e-02 2.400161e-01 -6.509788e-02 2.157269e-01 3.255299e-01 4.008319e-02 9.211509e-03 -2.440170e-01 -1.974924e-02 2.207592e-02 -1.084263e-01 -3.042665e-02 -3.580914e-01
<VARIANCE> 39
 8.843468e+00 1.708122e+01 3.026614e+01 2.280393e+01 3.161912e+01 3.275143e+01 4.625568e+01 3.750032e+01 4.887076e+01 3.333605e+01 2.744531e+01 1.675507e+01 2.391885e+01 2.779051e-01 5.140440e-01 8.058234e-01 6.190338e-01 8.806523e-01 8.287619e-01 9.458184e-01 8.516884e-01 1.008357e+00 7.165915e-01 7.294137e-01 5.863943e-01 3.771397e-01 8.950000e-02 1.383512e-01 1.177995e-01 1.482917e-01 2.022026e-01 1.774827e-01 1.967067e-01 2.297358e-01 1.750775e-01 1.566446e-01 1.409215e-01 1.091438e-01 1.510163e-01
<GCONST> 8.448819e+01
<STATE> 4
<MEAN> 39
 -2.414101e+00 -1.468200e+00 8.404210e+00 -6.170973e-01 -4.197608e+00 -7.144358e+00 -3.021283e+00 3.156795e+00 -1.868947e+00 -5.424936e-01 7.055917e-01 -2.838308e+00 6.353056e+01 1.621790e-01 1.371253e+00 -6.337967e-01 9.349043e-01 1.663431e+00 3.495675e-01 1.511292e-01 -9.630604e-01 2.248465e-01 1.750156e-01 -4.959396e-01 -1.240566e-01 -2.136550e+00 -1.875740e-01 3.545134e-01 -7.241184e-02 4.852510e-02 1.677321e-01 2.534446e-01 1.479631e-01 -2.842350e-01 1.043539e-02 3.250312e-02 2.899208e-02 3.676951e-02 -4.477786e-01
<VARIANCE> 39
 1.084344e+01 2.520016e+01 3.154446e+01 3.066350e+01 3.827321e+01 4.591250e+01 6.867866e+01 3.753473e+01 4.654353e+01 3.534199e+01 3.301859e+01 2.218848e+01 7.675665e+01 1.480472e+00 2.914963e+00 1.723811e+00 2.040620e+00 2.192256e+00 2.377967e+00 2.718197e+00 2.381918e+00 2.646361e+00 2.082600e+00 1.857876e+00 1.433228e+00 2.816753e+00 2.774245e-01 4.707563e-01 2.832475e-01 3.617421e-01 4.200161e-01 3.926738e-01 4.908369e-01 4.453759e-01 4.593467e-01 3.754563e-01 3.340143e-01 2.638971e-01 5.169889e-01
<GCONST> 1.153092e+02
<TRANSP> 5
 0.000000e+00 1.000000e+00 0.000000e+00 0.000000e+00 0.000000e+00
 0.000000e+00 5.377045e-01 4.622955e-01 0.000000e+00 0.000000e+00
 0.000000e+00 0.000000e+00 7.773947e-01 2.226053e-01 0.000000e+00
 0.000000e+00 0.000000e+00 0.000000e+00 6.311445e-01 3.688555e-01
 0.000000e+00 0.000000e+00 0.000000e+00 0.000000e+00 0.000000e+00
<ENDHMM>
~h "g"
<BEGINHMM>
<NUMSTATES> 5
<STATE> 2
<MEAN> 39
 -6.897730e-02 5.498522e+00 4.831624e+00 -1.438900e+00 3.836087e-01 -2.781278e+00 -3.406280e+00 -1.570761e+00 -6.729662e+00 1.824739e+00 2.791752e+00 -4.063837e+00 5.427521e+01 -7.184351e-01 1.418764e+00 -1.112763e-01 5.577706e-01 7.976298e-01 1.843380e-01 6.876621e-01 -2.158439e-01 1.905558e-01 -1.149066e-01 -6.509742e-01 5.497739e-01 -2.148711e+00 -3.247216e-01 -6.753088e-01 -1.848143e-01 -2.930315e-01 -1.172581e-01 6.083632e-02 -1.276987e-01 5.720378e-02 4.099424e-01 -1.158548e-01 -9.227908e-02 1.399827e-02 7.623188e-01
<VARIANCE> 39
 2.761573e+01 2.914292e+01 4.325718e+01 5.143020e+01 4.265752e+01 5.035606e+01 4.526083e+01 4.175273e+01 5.385294e+01 3.878940e+01 4.575503e+01 2.369299e+01 6.048270e+01 1.931388e+00 3.027942e+00 3.764919e+00 4.236161e+00 4.711869e+00 3.988567e+00 4.003908e+00 3.697629e+00 4.374983e+00 3.318719e+00 3.284054e+00 2.065475e+00 4.238622e+00 2.900164e-01 5.409386e-01 4.826736e-01 6.598816e-01 6.613685e-01 6.250061e-01 7.091453e-01 6.591841e-01 7.411351e-01 5.743474e-01 5.877022e-01 4.104162e-01 7.247806e-01
<GCONST> 1.289868e+02
<STATE> 3
<MEAN> 39
 -5.072299e+00 6.018143e+00 4.478718e+00 1.348803e+00 3.151434e+00 -1.456874e+00 -1.474492e+00 -1.816699e+00 -3.247604e+00 7.724560e-01 2.301226e-02 -2.326712e+00 4.863328e+01 -1.006265e+00 -1.237003e+00 -1.327962e+00 -1.185308e+00 6.373514e-01 2.440330e-01 -1.666748e-01 2.306646e-01 2.637432e-01 7.411218e-02 -1.604196e-01 1.315479e-01 1.186108e+00 2.129616e-01 -6.931502e-01 -2.522116e-01 -6.782360e-01 -3.736507e-01 -1.055494e-01 -2.671466e-01 9.805731e-02 -5.571185e-02 1.060900e-01 2.786551e-01 -1.545021e-01 1.255987e+00
<VARIANCE> 39
 3.222095e+01 2.627150e+01 3.416222e+01 3.590058e+01 3.474596e+01 3.516617e+01 3.306220e+01 2.814876e+01 3.559737e+01 2.409998e+01 2.528621e+01 1.568492e+01 7.334236e+01 2.670081e+00 2.853836e+00 4.839391e+00 5.078705e+00 4.200073e+00 3.498250e+00 3.291219e+00 3.011120e+00 2.942312e+00 2.493331e+00 2.356306e+00 1.731938e+00 5.399326e+00 3.801098e-01 5.443412e-01 6.919573e-01 7.048485e-01 7.726133e-01 6.673843e-01 6.419336e-01 6.094473e-01 6.483847e-01 5.474943e-01 5.147268e-01 3.496589e-01 5.999115e-01
<GCONST> 1.246499e+02
<STATE> 4
<MEAN> 39
 -7.560180e+00 -8.035578e-01 -2.387822e+00 -5.428084e+00 4.679294e+00 -2.083204e+00 -2.847090e+00 -1.273031e+00 -2.559515e+00 2.659040e+00 6.278979e-01 -2.407254e+00 5.809539e+01 2.611398e-01 -8.217705e-01 -4.447048e-02 -8.172240e-01 -5.470804e-01 -9.709539e-02 -3.694244e-01 1.448615e-02 2.903542e-01 -9.559935e-02 4.990588e-01 -2.117598e-01 2.093713e+00 5.690901e-01 2.649427e-01 7.398199e-01 4.433712e-01 -5.497741e-01 1.839480e-02 -4.163498e-02 -4.584916e-02 1.187201e-03 -2.348527e-01 1.677626e-01 -1.611035e-01 -1.179258e-01
<VARIANCE> 39
 4.335557e+01 3.516953e+01 7.249786e+01 4.795512e+01 5.173684e+01 4.898798e+01 3.673694e+01 3.477504e+01 4.143390e+01 3.108285e+01 3.043509e+01 1.967933e+01 4.411865e+01 3.744911e+00 3.334864e+00 5.782355e+00 5.812941e+00 3.940876e+00 3.565622e+00 3.571161e+00 3.078819e+00 3.284512e+00 3.006792e+00 2.576839e+00 1.907481e+00 4.935545e+00 5.470824e-01 6.846633e-01 9.392647e-01 9.494086e-01 8.303210e-01 7.439193e-01 7.324871e-01 6.991208e-01 6.902115e-01 6.158978e-01 5.173810e-01 3.809609e-01 7.894686e-01
<GCONST> 1.310893e+02
<TRANSP> 5
 0.000000e+00 1.000000e+00 0.000000e+00 0.000000e+00 0.000000e+00
 0.000000e+00 4.494991e-01 5.505009e-01 0.000000e+00 0.000000e+00
 0.000000e+00 0.000000e+00 4.494973e-01 5.505027e-01 0.000000e+00
 0.000000e+00 0.000000e+00 0.000000e+00 5.554788e-01 4.445212e-01
 0.000000e+00 0.000000e+00 0.000000e+00 0.000000e+00 0.000000e+00
<ENDHMM>
~h "h"
<BEGINHMM>
<NUMSTATES> 5
<STATE> 2
<MEAN> 39
 -3.294658e+00 4.970203e-01 2.089133e+00 -1.850954e+00 2.684708e+00 3.651571e-01 -6.549293e-01 -1.988222e-01 3.231824e-01 4.598043e-02 -7.802692e-01 -2.714406e+00 5.708746e+01 -5.582642e-01 -1.085903e-01 -2.673309e-01 1.292337e-01 1.042040e+00 4.716689e-01 8.325152e-01 2.345764e-01 3.163769e-01 -4.731805e-01 -3.343955e-01 3.179453e-02 -7.489923e-02 -1.707969e-03 -3.796930e-01 -3.955182e-02 -1.530280e-01 -1.859740e-01 -6.506188e-02 -1.792079e-01 -4.501603e-02 -8.485697e-03 -6.388014e-02 5.370180e-02 -8.272793e-02 3.302908e-01
<VARIANCE> 39
 3.481524e+01 2.774078e+01 4.469433e+01 3.921682e+01 3.705321e+01 4.174166e+01 3.992553e+01 3.456377e+01 3.464436e+01 2.673180e+01 3.162632e+01 2.263276e+01 1.157527e+02 1.675967e+00 2.431153e+00 2.704580e+00 3.404233e+00 3.460082e+00 2.967490e+00 2.956461e+00 2.782223e+00 2.518353e+00 2.186020e+00 2.176228e+00 1.582944e+00 2.229693e+00 2.272942e-01 4.197225e-01 4.174358e-01 4.851436e-01 5.038617e-01 4.816419e-01 4.903919e-01 4.516305e-01 4.123317e-01 3.820041e-01 3.807531e-01 2.814073e-01 3.760992e-01
<GCONST> 1.186243e+02
<STATE> 3
<MEAN> 39
 -3.412811e+00 -1.608219e+00 1.593401e+00 -1.567974e+00 5.450649e+00 2.004664e+00 9.278645e-01 2.066589e-01 1.289402e+00 -1.390943e+00 -1.825635e+00 -3.245031e+00 6.030814e+01 -2.931621e-01 -7.486861e-01 -4.879363e-01 -2.824103e-01 4.090433e-01 5.524626e-02 2.117186e-01 1.155066e-02 1.660510e-01 -3.437949e-01 -1.633353e-01 -1.857918e-01 5.939647e-01 2.368191e-01 -7.860602e-02 -1.614721e-02 -2.309986e-01 -4.988680e-01 -2.860316e-01 -3.820575e-01 -9.353998e-02 -1.336393e-01 1.552620e-01 8.048402e-02 -6.752402e-02 2.467272e-01
<VARIANCE> 39
 2.290173e+01 2.274707e+01 4.019159e+01 3.615570e+01 4.824128e+01 4.716378e+01 4.326933e+01 3.660610e+01 3.473972e+01 2.737981e+01 3.084696e+01 2.297756e+01 7.378350e+01 1.299185e+00 1.951450e+00 1.741020e+00 2.365531e+00 2.439143e+00 2.198203e+00 2.046054e+00 2.276893e+00 1.870793e+00 1.648303e+00 1.739686e+00 1.305764e+00 1.740811e+00 1.929769e-01 2.721054e-01 3.043159e-01 4.039184e-01 4.605654e-01 4.006554e-01 4.332991e-01 4.165146e-01 3.832478e-01 3.516837e-01 3.314848e-01 2.518225e-01 1.842636e-01
<GCONST> 1.114752e+02
<STATE> 4
<MEAN> 39
 -5.976772e+00 -5.226419e+00 -1.417260e+00 -3.238830e+00 4.553959e+00 6.350709e-01 2.464369e-01 -1.230391e+00 1.694465e+00 -1.646145e+00 -1.874416e+00 -3.392611e+00 5.868682e+01 5.731961e-01 -1.062714e-01 -1.667043e-01 -2.742644e-01 -2.668965e-01 -3.179633e-01 -2.389254e-01 -6.507021e-02 -1.134964e-01 -1.108310e-01 -2.602729e-01 -2.860145e-01 1.204095e+00 2.824808e-01 2.639737e-01 1.728090e-01 6.626312e-02 -2.258974e-01 -6.006148e-02 -1.875068e-01 5.209278e-02 -8.097304e-02 1.227556e-01 4.960898e-02 -1.788689e-02 9.810535e-03
<VARIANCE> 39
 4.487378e+01 3.872962e+01 3.947067e+01 3.887440e+01 4.164888e+01 3.733828e+01 3.434154e+01 3.633875e+01 3.012098e+01 2.655032e+01 2.891602e+01 2.226845e+01 6.768163e+01 2.091773e+00 2.913626e+00 1.698087e+00 2.224919e+00 2.164163e+00 2.041712e+00 2.120240e+00 2.145783e+00 1.876372e+00 1.693459e+00 1.738735e+00 1.332793e+00 2.311755e+00 3.051482e-01 4.741304e-01 3.151151e-01 4.282239e-01 4.188841e-01 3.629749e-01 4.164146e-01 4.119513e-01 3.467084e-01 3.230434e-01 3.191937e-01 2.475927e-01 2.115012e-01
<GCONST> 1.134274e+02
<TRANSP> 5
 0.000000e+00 1.000000e+00 0.000000e+00 0.000000e+00 0.000000e+00
 0.000000e+00 3.978998e-01 6.021003e-01 0.000000e+00 0.000000e+00
 0.000000e+00 0.000000e+00 3.279129e-01 6.720871e-01 0.000000e+00
 0.000000e+00 0.000000e+00 0.000000e+00 6.019543e-01 3.980457e-01
 0.000000e+00 0.000000e+00 0.000000e+00 0.000000e+00 0.000000e+00
<ENDHMM>
~h "i"
<BEGINHMM>
<NUMSTATES> 5
<STATE> 2
<MEAN> 39
 -6.467498e+00 2.868241e+00 1.384346e+01 -1.174238e+00 -4.181497e+00 -5.530586e+00 -5.321098e+00 -2.035396e+00 -4.261991e+00 -2.153072e+00 2.196937e+00 -1.411171e+00 6.234555e+01 1.472915e+00 -3.470507e-01 1.760587e+00 -1.028329e-01 -1.818924e+00 -3.498733e-01 -1.170402e+00 2.975523e-01 -1.132062e+00 -3.700653e-01 7.887275e-01 -8.984683e-02 1.248602e+00 -6.625901e-03 -8.424561e-02 -4.789974e-01 7.729685e-02 1.941639e-01 1.398611e-01 9.772805e-02 4.850294e-02 1.205578e-01 1.609060e-01 -4.061120e-02 -1.055692e-01 -2.206776e-01
<VARIANCE> 39
 3.840927e+01 3.127402e+01 3.132613e+01 2.843081e+01 3.764466e+01 3.306157e+01 4.129379e+01 3.228602e+01 3.498817e+01 2.915580e+01 2.369933e+01 1.727506e+01 4.903009e+01 7.269236e+00 3.222064e+00 3.050754e+00 4.340066e+00 3.211362e+00 3.742400e+00 3.895166e+00 3.100944e+00 3.314954e+00 2.764294e+00 2.390679e+00 1.734043e+00 2.565147e+00 6.002825e-01 4.421652e-01 4.657473e-01 5.237203e-01 6.041906e-01 5.067567e-01 5.109543e-01 4.488622e-01 4.409857e-01 3.691612e-01 3.189421e-01 2.611015e-01 3.861864e-01
<GCONST> 1.213653e+02
<STATE> 3
<MEAN> 39
 -4.447642e+00 1.231630e+00 1.687066e+01 -3.118169e+00 -8.900505e+00 -3.741230e+00 -7.622425e+00 -9.757177e-01 -6.639931e+00 -1.621974e+00 4.016769e+00 -2.205882e+00 6.545783e+01 3.424986e-01 -7.994856e-02 -8.095230e-02 2.656765e-01 -1.576500e-01 -1.813570e-01 1.197833e-01 9.194566e-02 -6.098282e-02 6.614389e-02 9.746001e-02 -1.128309e-01 -7.139166e-02 7.522875e-03 1.613924e-01 -5.159502e-01 3.115067e-01 5.576227e-01 -9.892994e-02 2.693973e-01 -1.083596e-01 3.101161e-01 6.923918e-02 -2.523283e-01 -3.440935e-02 -4.444742e-01
<VARIANCE> 39
 1.484000e+01 2.475301e+01 2.922823e+01 3.319698e+01 3.487771e+01 3.975037e+01 4.486517e+01 3.785568e+01 4.604884e+01 3.904995e+01 2.769252e+01 1.998381e+01 2.799401e+01 1.599375e+00 1.485404e+00 1.461912e+00 1.766604e+00 1.733821e+00 1.782902e+00 1.798094e+00 1.649479e+00 1.667158e+00 1.371260e+00 1.150471e+00 1.003993e+00 1.171300e+00 3.269440e-01 2.696854e-01 3.098167e-01 3.841096e-01 4.253102e-01 4.116634e-01 3.899570e-01 3.571077e-01 3.853680e-01 3.024443e-01 2.677346e-01 2.005287e-01 2.444928e-01
<GCONST> 1.066811e+02
<STATE> 4
<MEAN> 39
 -3.262552e+00 1.935320e+00 1.295029e+01 1.148602e+00 -5.104220e+00 -6.648048e+00 -4.645132e+00 -9.285195e-01 -4.795063e+00 -1.814624e+00 2.966454e+00 -2.335626e+00 6.156976e+01 5.795115e-01 7.742009e-01 -1.552870e+00 1.055770e+00 1.750176e+00 -1.238123e-01 4.939641e-01 -3.250369e-01 7.964912e-01 3.364477e-01 -7.794418e-01 -2.169825e-01 -1.843017e+00 -2.661374e-01 1.790223e-01 -3.043358e-01 -1.415721e-01 3.608589e-01 3.811324e-01 7.175711e-02 -2.140841e-01 1.654724e-01 1.141281e-01 -2.002879e-01 1.175911e-02 -3.051701e-01
<VARIANCE> 39
 2.289321e+01 3.202304e+01 3.181184e+01 2.987733e+01 3.790150e+01 4.324531e+01 5.268336e+01 3.902856e+01 4.149668e+01 3.396463e+01 3.094111e+01 2.016447e+01 5.559352e+01 2.375903e+00 3.182309e+00 2.268889e+00 2.926039e+00 2.996095e+00 3.147551e+00 3.125257e+00 2.844714e+00 3.036305e+00 2.514394e+00 2.141010e+00 1.734551e+00 3.505847e+00 3.940277e-01 4.565847e-01 3.767544e-01 4.552686e-01 5.371041e-01 5.344725e-01 5.480174e-01 4.988246e-01 4.697294e-01 4.169287e-01 3.804216e-01 2.863278e-01 4.426864e-01
<GCONST> 1.201251e+02
<TRANSP> 5
 0.000000e+00 1.000000e+00 0.000000e+00 0.000000e+00 0.000000e+00
 0.000000e+00 4.142437e-01 5.857563e-01 0.000000e+00 0.000000e+00
 0.000000e+00 0.000000e+00 6.730387e-01 3.269612e-01 0.000000e+00
 0.000000e+00 0.000000e+00 0.000000e+00 4.551648e-01 5.448352e-01
 0.000000e+00 0.000000e+00 0.000000e+00 0.000000e+00 0.000000e+00
<ENDHMM>
~h "j"
<BEGINHMM>
<NUMSTATES> 5
<STATE> 2
<MEAN> 39
 -6.410467e+00 7.668550e+00 8.371236e+00 1.192320e+00 2.941772e+00 -5.333055e+00 -4.295586e+00 -1.984806e+00 9.723652e-03 -8.426293e-01 -1.369306e+00 -9.422070e-01 5.402641e+01 -2.576614e+00 1.086784e+00 -1.407983e-01 -2.435232e-01 1.104120e+00 5.244895e-01 8.544282e-01 3.069862e-03 -1.873464e-01 -3.788240e-01 1.494549e-01 2.441642e-01 -7.819726e-01 -4.629284e-01 -7.296153e-01 -3.544579e-01 -4.696130e-01 -2.525892e-01 1.760093e-01 -3.193760e-02 7.538424e-02 3.494489e-03 2.726715e-02 1.770300e-01 -9.070154e-02 9.588790e-01
<VARIANCE> 39
 3.494894e+01 3.318690e+01 2.720138e+01 2.162077e+01 2.724651e+01 3.449884e+01 4.015644e+01 2.437494e+01 2.557252e+01 2.071018e+01 1.762650e+01 1.467008e+01 7.656813e+01 4.051354e+00 6.378981e+00 3.493896e+00 3.555102e+00 3.585139e+00 3.577247e+00 3.450365e+00 3.210070e+00 2.830962e+00 2.466366e+00 2.246744e+00 1.804974e+00 7.680642e+00 6.336792e-01 8.006209e-01 4.235121e-01 4.474491e-01 5.651489e-01 6.135066e-01 5.919178e-01 4.796416e-01 4.724999e-01 3.773561e-01 3.495879e-01 3.366567e-01 9.541796e-01
<GCONST> 1.225464e+02
<STATE> 3
<MEAN> 39
 -1.904813e+01 5.684612e+00 4.842560e+00 -3.662091e+00 5.140675e+00 -2.844316e+00 -1.448202e+00 -1.583872e+00 -7.537616e-01 -1.553639e+00 9.152807e-02 -6.552861e-01 5.972858e+01 -1.979211e+00 -9.258571e-01 -5.484191e-01 -1.167539e+00 -6.317614e-01 -2.632624e-01 1.177337e-01 4.501608e-01 3.365877e-01 -1.436954e-01 3.175776e-01 3.516564e-01 2.145461e+00 1.377809e+00 -3.796208e-01 2.821035e-01 3.509644e-01 -6.152413e-01 -3.551618e-01 -2.996122e-01 3.387528e-02 1.914152e-01 1.060060e-01 -1.133283e-01 -3.557021e-02 -8.199061e-02
<VARIANCE> 39
 3.618663e+01 3.912468e+01 3.980601e+01 2.506375e+01 2.673088e+01 3.089687e+01 2.780969e+01 1.969439e+01 1.611153e+01 1.565534e+01 1.184782e+01 1.010184e+01 3.180673e+01 5.434588e+00 2.607299e+00 2.640197e+00 2.380117e+00 2.458411e+00 2.681344e+00 2.369885e+00 2.100534e+00 1.848106e+00 1.488404e+00 1.269576e+00 1.148127e+00 3.386745e+00 8.764115e-01 9.036936e-01 6.406774e-01 5.649087e-01 6.715152e-01 6.723059e-01 5.730323e-01 4.855836e-01 4.380999e-01 3.881450e-01 3.372815e-01 2.706811e-01 7.038433e-01
<GCONST> 1.153832e+02
<STATE> 4
<MEAN> 39
 -1.636062e+01 1.297937e+00 4.671716e+00 -3.809195e+00 8.635030e-01 -5.651399e+00 -2.027305e+00 1.522567e-01 2.229164e+00 -1.755427e+00 -2.492108e-01 5.046672e-01 6.274118e+01 3.141914e+00 -1.322997e+00 5.069872e-01 7.450954e-01 -9.336508e-01 -6.068667e-01 -7.347878e-01 6.346208e-02 4.375101e-01 1.153349e-01 -3.274137e-01 -3.542724e-01 6.234644e-01 1.091701e+00 6.567167e-02 1.361803e-01 2.329245e-01 6.949075e-02 2.556726e-01 -2.614986e-01 -1.998246e-01 -2.956423e-01 1.473774e-01 2.591866e-02 -3.299509e-01 -1.967670e-01
<VARIANCE> 39
 5.096773e+01 3.401286e+01 3.283217e+01 2.501946e+01 2.450184e+01 2.771058e+01 3.797955e+01 2.434404e+01 2.276543e+01 1.866686e+01 1.646008e+01 1.311596e+01 3.020793e+01 4.570273e+00 3.884948e+00 3.546312e+00 2.693505e+00 4.025946e+00 3.548515e+00 3.301256e+00 2.589088e+00 2.727114e+00 2.249346e+00 2.088545e+00 1.537196e+00 1.905792e+00 9.308919e-01 5.630929e-01 4.505438e-01 5.356858e-01 5.457132e-01 5.975614e-01 5.424592e-01 5.198046e-01 4.688084e-01 4.249713e-01 4.001777e-01 2.856908e-01 4.156978e-01
<GCONST> 1.184808e+02
<TRANSP> 5
 0.000000e+00 1.000000e+00 0.000000e+00 0.000000e+00 0.000000e+00
 0.000000e+00 6.529846e-01 3.470154e-01 0.000000e+00 0.000000e+00
 0.000000e+00 0.000000e+00 6.277522e-01 3.722478e-01 0.000000e+00
 0.000000e+00 0.000000e+00 0.000000e+00 5.751833e-01 4.248167e-01
 0.000000e+00 0.000000e+00 0.000000e+00 0.000000e+00 0.000000e+00
<ENDHMM>
~h "k"
<BEGINHMM>
<NUMSTATES> 5
<STATE> 2
<MEAN> 39
 -4.280362e+00 7.524744e+00 4.715031e+00 2.241296e+00 2.489265e+00 -2.726583e+00 -2.027083e+00 -1.520318e+00 -1.897785e+00 1.320959e+00 -3.945995e-01 -2.368250e+00 4.581606e+01 -1.308582e+00 1.614188e-01 9.577361e-02 1.033977e+00 3.656084e-01 9.561263e-02 4.665067e-01 -2.285178e-01 4.740868e-01 -3.998461e-01 -4.934279e-01 3.691275e-01 -2.065356e+00 -1.631125e-01 -9.227359e-01 -4.157357e-01 -6.044978e-01 -1.855128e-02 1.131706e-01 -8.280104e-02 4.876503e-02 -8.595958e-02 7.222707e-02 1.023213e-01 -8.994627e-02 1.359366e+00
<VARIANCE> 39
 2.262886e+01 1.798737e+01 2.320921e+01 2.753966e+01 3.211274e+01 3.305869e+01 3.107838e+01 2.740109e+01 2.862914e+01 2.446142e+01 2.278877e+01 1.595028e+01 4.113560e+01 1.934127e+00 4.080507e+00 3.109334e+00 3.240090e+00 3.976866e+00 3.783051e+00 3.108270e+00 2.842921e+00 3.052996e+00 2.509667e+00 2.699126e+00 1.790267e+00 5.796250e+00 3.903983e-01 6.168278e-01 6.661884e-01 7.322691e-01 8.359739e-01 6.990910e-01 6.251801e-01 6.196991e-01 6.170815e-01 5.781358e-01 4.785320e-01 3.573661e-01 1.026545e+00
<GCONST> 1.222622e+02
<STATE> 3
<MEAN> 39
 -8.262177e+00 2.083848e+00 5.815507e-02 -3.989265e-01 5.251159e+00 -7.256509e-01 -6.734962e-01 -4.073338e-01 -2.297363e+00 9.570019e-01 -1.385050e+00 -2.314513e+00 4.811053e+01 -1.143245e+00 -2.724075e+00 -2.924206e+00 -3.161761e+00 3.986186e-01 -2.573042e-01 -2.894495e-01 3.932665e-01 -6.307837e-02 9.661658e-01 8.630450e-02 8.569039e-02 4.374463e+00 1.303837e-01 9.445824e-03 1.186216e-01 -2.173849e-01 -2.947528e-01 -2.422936e-01 -1.610377e-01 -9.861656e-02 1.588411e-01 1.830842e-01 1.925147e-01 5.483602e-03 7.635497e-01
<VARIANCE> 39
 1.982547e+01 3.443600e+01 6.336183e+01 6.820679e+01 3.464317e+01 2.624651e+01 2.636602e+01 2.780257e+01 2.239694e+01 1.965550e+01 1.723633e+01 1.314744e+01 7.129771e+01 3.121058e+00 3.049262e+00 4.490781e+00 4.096628e+00 5.403626e+00 3.471804e+00 3.470875e+00 3.664522e+00 2.960196e+00 2.499309e+00 2.294764e+00 1.928469e+00 4.156244e+00 3.779700e-01 6.118142e-01 1.180000e+00 1.574517e+00 6.234985e-01 5.077370e-01 5.048730e-01 5.807147e-01 4.666621e-01 4.518185e-01 3.879892e-01 3.117938e-01 1.417592e+00
<GCONST> 1.247734e+02
<STATE> 4
<MEAN> 39
 -1.221070e+01 -3.744440e+00 -2.903963e+00 -5.233099e+00 4.252635e+00 -3.054347e+00 -1.681726e+00 -1.415042e+00 9.807621e-02 3.295860e+00 -3.279415e-01 -1.476728e+00 6.017341e+01 5.584633e-01 -1.138342e-01 9.323277e-01 2.704340e-01 -5.963829e-01 -1.329746e-01 1.663829e-01 -3.973149e-02 2.600289e-01 -4.840318e-01 9.507926e-02 -2.108486e-01 1.315762e+00 9.241067e-01 6.420607e-01 6.847373e-01 5.408538e-01 -3.031023e-01 6.190477e-02 -4.972554e-02 8.711630e-02 -1.998466e-01 -3.772595e-01 -4.375350e-02 -2.121214e-01 -5.683384e-01
<VARIANCE> 39
 2.846689e+01 2.071229e+01 6.152207e+01 3.553411e+01 5.153682e+01 3.829024e+01 3.189314e+01 3.219532e+01 3.128831e+01 2.877239e+01 2.519562e+01 1.996609e+01 3.215520e+01 4.552307e+00 3.056269e+00 3.237695e+00 4.131361e+00 2.829209e+00 2.689080e+00 2.908408e+00 2.866298e+00 2.826514e+00 2.973306e+00 2.197199e+00 1.967697e+00 4.400205e+00 4.694917e-01 5.583538e-01 8.061279e-01 9.533284e-01 7.614090e-01 6.086240e-01 6.991679e-01 6.563345e-01 6.024736e-01 6.307226e-01 4.409052e-01 3.803639e-01 9.465455e-01
<GCONST> 1.252544e+02
<TRANSP> 5
 0.000000e+00 1.000000e+00 0.000000e+00 0.000000e+00 0.000000e+00
 0.000000e+00 7.497191e-01 2.502809e-01 0.000000e+00 0.000000e+00
 0.000000e+00 0.000000e+00 5.654374e-01 4.345626e-01 0.000000e+00
 0.000000e+00 0.000000e+00 0.000000e+00 7.434894e-01 2.565106e-01
 0.000000e+00 0.000000e+00 0.000000e+00 0.000000e+00 0.000000e+00
<ENDHMM>
~h "l"
<BEGINHMM>
<NUMSTATES> 5
<STATE> 2
<MEAN> 39
 1.123480e+00 -6.369861e+00 7.846129e+00 1.041177e+00 -5.903811e+00 -6.395236e+00 -1.021632e+01 -1.571801e+00 2.744813e+00 -5.491803e-01 2.820997e-01 -3.128141e+00 6.703232e+01 3.722014e-03 2.540005e-01 5.799590e-01 5.161813e-01 -6.329610e-03 -4.004834e-01 -4.764797e-02 -8.064063e-02 -2.694582e-01 -2.315674e-01 -1.830934e-02 2.193505e-01 -4.245653e-01 -7.530852e-02 3.664336e-01 -1.269508e-01 -1.880828e-02 3.314351e-01 1.467961e-01 2.031840e-01 -8.674581e-02 -2.212226e-01 -1.093962e-02 7.187513e-02 1.110703e-02 -2.888233e-01
<VARIANCE> 39
 1.342744e+01 2.167612e+01 3.230400e+01 3.734504e+01 3.294815e+01 4.138411e+01 4.699332e+01 5.301389e+01 5.037703e+01 3.904743e+01 3.152364e+01 2.116707e+01 2.883570e+01 4.112012e-01 6.890472e-01 1.214022e+00 1.611564e+00 1.386207e+00 1.952219e+00 1.450702e+00 1.567672e+00 1.516835e+00 1.339293e+00 1.377106e+00 1.081410e+00 3.971130e-01 1.216730e-01 2.028794e-01 1.697507e-01 2.931205e-01 2.931773e-01 3.025571e-01 3.105432e-01 3.238578e-01 3.318913e-01 2.715232e-01 2.343667e-01 1.970551e-01 1.371115e-01
<GCONST> 9.945403e+01
<STATE> 3
<MEAN> 39
 1.359840e+00 -4.961998e+00 8.769518e+00 2.137094e+00 -4.310820e+00 -7.033474e+00 -1.036514e+01 -2.087561e+00 5.027997e-01 -6.521009e-01 8.278965e-01 -2.853734e+00 6.507014e+01 -1.936132e-01 1.760193e+00 8.843639e-02 7.049173e-01 1.288717e+00 -1.482308e-01 6.408049e-01 -4.714487e-01 -8.158323e-01 -1.392355e-01 1.495930e-01 2.288733e-01 -1.653614e+00 -3.046195e-01 6.477141e-01 -3.021431e-01 -1.890864e-01 3.936844e-01 2.872233e-01 4.412704e-01 -3.133500e-02 -3.036207e-02 8.109448e-02 -2.329601e-02 -7.979857e-03 -5.099092e-01
<VARIANCE> 39
 1.411232e+01 2.298558e+01 3.840937e+01 3.866965e+01 3.336868e+01 4.381134e+01 4.646731e+01 5.367192e+01 4.949321e+01 4.250981e+01 3.636557e+01 2.334871e+01 2.778102e+01 1.220100e+00 2.099377e+00 2.070240e+00 2.803281e+00 2.611322e+00 3.539372e+00 3.151222e+00 3.209099e+00 3.221087e+00 2.623641e+00 2.471580e+00 1.775982e+00 1.908084e+00 2.106757e-01 3.593776e-01 3.139265e-01 4.683143e-01 4.662842e-01 4.952773e-01 5.113128e-01 5.204633e-01 5.384453e-01 4.541823e-01 3.987737e-01 3.078347e-01 3.678371e-01
<GCONST> 1.172945e+02
<STATE> 4
<MEAN> 39
 2.098510e-01 -1.868138e-01 7.707769e+00 4.099731e+00 -2.961412e-01 -7.336960e+00 -7.300365e+00 -3.167231e+00 -5.308801e-01 -1.185662e+00 5.820543e-01 -2.188496e+00 6.003561e+01 -8.520450e-01 2.059022e+00 -2.729586e-01 -2.258304e-02 1.300917e+00 5.420060e-01 9.777039e-01 -2.024736e-01 -4.651964e-01 9.092556e-02 -2.129748e-02 1.305543e-01 -1.989070e+00 -2.706805e-01 -1.024258e-01 -1.976697e-01 -3.968444e-01 -1.355549e-01 3.422159e-01 1.048257e-01 1.280380e-01 1.003033e-01 8.745931e-02 -4.023930e-02 -6.717446e-02 4.245490e-02
<VARIANCE> 39
 2.217288e+01 2.834331e+01 3.943081e+01 3.559851e+01 3.533953e+01 5.462621e+01 4.817762e+01 4.802881e+01 4.407431e+01 3.708205e+01 3.719014e+01 2.345570e+01 4.855130e+01 2.002237e+00 4.491785e+00 2.485926e+00 3.536140e+00 3.642949e+00 3.505521e+00 3.932593e+00 3.700668e+00 3.911116e+00 2.927153e+00 2.455936e+00 1.797802e+00 4.636646e+00 2.950051e-01 3.341337e-01 3.938983e-01 4.775978e-01 5.185308e-01 6.689044e-01 5.513347e-01 5.653107e-01 5.196038e-01 4.612852e-01 4.610598e-01 3.321960e-01 3.363085e-01
<GCONST> 1.231777e+02
<TRANSP> 5
 0.000000e+00 1.000000e+00 0.000000e+00 0.000000e+00 0.000000e+00
 0.000000e+00 6.344168e-01 3.655832e-01 0.000000e+00 0.000000e+00
 0.000000e+00 0.000000e+00 3.127685e-01 6.872315e-01 0.000000e+00
 0.000000e+00 0.000000e+00 0.000000e+00 2.948574e-01 7.051426e-01
 0.000000e+00 0.000000e+00 0.000000e+00 0.000000e+00 0.000000e+00
<ENDHMM>
~h "m"
<BEGINHMM>
<NUMSTATES> 5
<STATE> 2
<MEAN> 39
 3.562083e+00 3.340121e-01 5.940223e+00 2.299398e+00 -1.219085e+00 -3.854587e-01 -3.364790e+00 -5.983207e+00 -6.046625e+00 1.183588e+00 1.738635e+00 -5.186250e+00 5.919451e+01 2.931105e-01 1.060052e+00 1.083701e+00 2.018631e+00 1.564179e-01 -4.204530e-01 7.226703e-01 -1.514801e+00 -1.401877e+00 3.173279e-01 -3.737851e-01 -1.510403e-01 -1.267034e+00 -3.143882e-01 -1.438583e-01 -6.930766e-02 -4.424063e-01 -3.822489e-02 -7.192799e-02 -4.672125e-02 3.266247e-01 3.820653e-01 -1.294129e-01 -1.557841e-01 9.909618e-02 3.911873e-01
<VARIANCE> 39
 1.175571e+01 2.445448e+01 2.433624e+01 4.185558e+01 3.781449e+01 3.981981e+01 4.105122e+01 3.976268e+01 4.549559e+01 3.611103e+01 3.794013e+01 2.288997e+01 3.977687e+01 1.060057e+00 1.644309e+00 2.630941e+00 3.503742e+00 2.648683e+00 3.023427e+00 3.286196e+00 3.081391e+00 3.702746e+00 2.547892e+00 3.202539e+00 2.011042e+00 1.789250e+00 1.785936e-01 2.374688e-01 3.594787e-01 5.187532e-01 4.025769e-01 3.720234e-01 4.255530e-01 4.171098e-01 5.154081e-01 3.574702e-01 4.503936e-01 2.882375e-01 2.030120e-01
<GCONST> 1.148999e+02
<STATE> 3
<MEAN> 39
 3.255782e+00 1.445409e+00 8.368154e+00 4.708795e+00 -1.494316e+00 -1.474486e+00 -2.474014e+00 -7.837707e+00 -6.725794e+00 1.097868e+00 -1.525668e-01 -4.973748e+00 5.837474e+01 -1.040647e-01 2.428448e-01 8.188158e-02 -8.781621e-02 -4.646282e-02 -8.888682e-02 9.152137e-02 1.454539e-02 1.024599e-01 -1.700643e-01 -1.282665e-01 1.132000e-01 -1.051846e-02 -1.313332e-01 -2.314150e-01 -3.558059e-01 -7.420124e-01 -7.561518e-02 1.379544e-01 -1.747095e-01 4.832576e-01 4.350099e-01 -1.326147e-01 1.776162e-01 1.097365e-01 4.125433e-01
<VARIANCE> 39
 8.509875e+00 2.233389e+01 2.093156e+01 3.007179e+01 4.415641e+01 4.763956e+01 3.863859e+01 4.322891e+01 5.385843e+01 4.595271e+01 4.340622e+01 2.544209e+01 3.071165e+01 4.022983e-01 7.236652e-01 1.012454e+00 1.586686e+00 1.243946e+00 1.246317e+00 1.200433e+00 1.356139e+00 1.587733e+00 1.331932e+00 1.472121e+00 9.971303e-01 7.142252e-01 1.449759e-01 2.483695e-01 3.699866e-01 4.834527e-01 4.382334e-01 3.892902e-01 4.192855e-01 4.435785e-01 6.078349e-01 4.048175e-01 4.729377e-01 3.134357e-01 2.168008e-01
<GCONST> 1.043137e+02
<STATE> 4
<MEAN> 39
 2.936328e+00 1.783689e+00 6.637993e+00 2.510903e+00 -1.124355e+00 -1.262248e+00 -2.524085e+00 -6.430449e+00 -5.679029e+00 1.537187e-01 9.914623e-01 -4.452672e+00 5.890258e+01 -4.828845e-01 -7.139146e-01 -9.449579e-01 -2.345181e+00 -2.392250e-01 3.505480e-01 -4.145739e-01 1.368272e+00 1.422495e+00 -4.727212e-01 4.152516e-01 3.352931e-01 1.508768e+00 -1.949738e-01 -3.154416e-01 -1.629106e-01 -4.504852e-01 -7.693079e-03 1.398711e-01 -1.513377e-01 3.605984e-01 3.020263e-01 1.513134e-02 2.167031e-02 -4.043145e-02 3.727646e-01
<VARIANCE> 39
 1.133070e+01 2.808930e+01 2.423650e+01 4.130787e+01 3.669649e+01 3.840248e+01 3.493167e+01 3.832659e+01 4.254218e+01 3.401171e+01 3.701551e+01 2.065991e+01 4.343550e+01 1.409750e+00 2.367692e+00 3.753199e+00 4.104232e+00 3.545863e+00 2.987317e+00 2.812335e+00 2.932628e+00 3.942449e+00 2.575101e+00 3.174628e+00 2.206292e+00 2.380499e+00 2.118355e-01 2.897374e-01 3.684943e-01 5.649559e-01 4.781025e-01 3.875517e-01 4.132465e-01 4.707612e-01 5.796465e-01 3.788533e-01 4.868287e-01 2.997206e-01 2.629660e-01
<GCONST> 1.175695e+02
<TRANSP> 5
 0.000000e+00 1.000000e+00 0.000000e+00 0.000000e+00 0.000000e+00
 0.000000e+00 4.199254e-01 5.800745e-01 0.000000e+00 0.000000e+00
 0.000000e+00 0.000000e+00 6.226531e-01 3.773469e-01 0.000000e+00
 0.000000e+00 0.000000e+00 0.000000e+00 3.865705e-01 6.134295e-01
 0.000000e+00 0.000000e+00 0.000000e+00 0.000000e+00 0.000000e+00
<ENDHMM>
~h "n"
<BEGINHMM>
<NUMSTATES> 5
<STATE> 2
<MEAN> 39
 1.250200e+00 -5.491365e-01 5.693299e+00 1.076709e-01 -1.063375e-01 -3.926864e+00 -5.437202e+00 -1.435633e+00 -2.159613e+00 2.288069e+00 -1.922407e+00 -5.733703e+00 6.283000e+01 6.643464e-01 1.061949e+00 1.352397e+00 1.876256e+00 -7.934644e-01 1.317989e-02 8.822548e-01 -2.257729e+00 -6.108494e-01 6.649199e-01 -5.905336e-01 1.946293e-01 -1.739933e+00 -1.022958e-01 5.099258e-02 1.555158e-02 -1.119689e-01 -1.220735e-01 2.111244e-01 1.067473e-01 -1.751488e-01 1.557373e-01 -1.353897e-01 1.966621e-02 1.506623e-01 -1.331564e-03
<VARIANCE> 39
 9.462070e+00 2.219506e+01 3.267362e+01 2.990560e+01 4.056853e+01 3.400397e+01 5.120329e+01 5.913551e+01 5.637284e+01 3.796775e+01 3.690729e+01 2.559081e+01 3.534618e+01 8.064030e-01 1.479362e+00 2.569117e+00 2.323246e+00 2.926108e+00 2.848278e+00 3.195185e+00 3.731101e+00 3.430358e+00 2.498236e+00 2.450452e+00 2.060993e+00 1.192079e+00 1.507585e-01 1.805729e-01 3.310399e-01 3.405805e-01 4.046765e-01 3.713945e-01 3.811497e-01 6.255880e-01 4.055555e-01 3.369820e-01 3.119890e-01 2.785580e-01 1.911439e-01
<GCONST> 1.125408e+02
<STATE> 3
<MEAN> 39
 2.772548e+00 1.977809e+00 8.927539e+00 4.623250e+00 -3.886620e+00 -2.242433e+00 -2.722271e+00 -8.597059e+00 -1.508821e+00 2.394736e+00 -3.334613e+00 -4.497935e+00 5.870908e+01 1.184750e-01 7.943622e-01 4.497327e-01 4.991856e-01 -1.300715e-01 4.326712e-02 3.399984e-01 -6.911578e-01 -1.319636e-01 7.494498e-02 -1.672423e-01 2.099040e-01 -8.914850e-01 -3.416786e-01 -8.649721e-02 -3.432683e-01 -5.397921e-01 4.339996e-01 -8.632973e-02 -1.852555e-01 7.145476e-01 6.182447e-02 -2.230643e-01 1.933977e-01 -1.100138e-02 3.336973e-01
<VARIANCE> 39
 7.755976e+00 2.069910e+01 2.392569e+01 2.495693e+01 4.142369e+01 3.173429e+01 4.683900e+01 4.919034e+01 6.053961e+01 4.744233e+01 3.579107e+01 2.862092e+01 2.841754e+01 5.253683e-01 1.149453e+00 1.447540e+00 1.546617e+00 1.903455e+00 1.554166e+00 1.764248e+00 2.716384e+00 1.762151e+00 1.521284e+00 1.430408e+00 1.193498e+00 1.017852e+00 1.597847e-01 2.245787e-01 3.452619e-01 3.941801e-01 4.430270e-01 3.785074e-01 4.151237e-01 5.702687e-01 4.545177e-01 4.093412e-01 3.413996e-01 3.004187e-01 2.460607e-01
<GCONST> 1.068955e+02
<STATE> 4
<MEAN> 39
 1.365043e-01 4.115636e+00 8.097399e+00 3.694744e+00 -2.660831e-03 -3.157639e+00 -2.417308e+00 -5.648685e+00 -2.080310e+00 1.577646e+00 -2.913570e+00 -3.812511e+00 5.570328e+01 -9.912561e-01 -2.131819e-03 -4.242943e-01 -1.016856e+00 8.849223e-01 -2.345980e-01 -1.880457e-01 1.175998e+00 9.640522e-02 -5.933695e-01 3.646205e-01 1.983275e-01 3.541775e-01 -2.720038e-01 -4.344587e-01 -2.758398e-01 -4.740826e-01 3.416457e-02 7.218076e-02 -1.702425e-01 5.303566e-01 1.480580e-01 -1.773257e-01 1.812387e-01 -3.977443e-03 5.190029e-01
<VARIANCE> 39
 2.450788e+01 2.860063e+01 2.402669e+01 2.774001e+01 4.604436e+01 3.097179e+01 4.205620e+01 4.597711e+01 4.121051e+01 3.793801e+01 2.904643e+01 2.316298e+01 6.310607e+01 1.525338e+00 2.839259e+00 2.441113e+00 2.836196e+00 3.129580e+00 2.738259e+00 2.690660e+00 3.726870e+00 2.850671e+00 2.433096e+00 2.000661e+00 1.786565e+00 3.867074e+00 4.031850e-01 3.732700e-01 4.379890e-01 5.376434e-01 5.986701e-01 5.258732e-01 5.028303e-01 7.444667e-01 4.790434e-01 4.766073e-01 3.764822e-01 3.389576e-01 4.123515e-01
<GCONST> 1.200897e+02
<TRANSP> 5
 0.000000e+00 1.000000e+00 0.000000e+00 0.000000e+00 0.000000e+00
 0.000000e+00 4.023865e-01 5.976135e-01 0.000000e+00 0.000000e+00
 0.000000e+00 0.000000e+00 5.941657e-01 4.058343e-01 0.000000e+00
 0.000000e+00 0.000000e+00 0.000000e+00 4.772615e-01 5.227385e-01
 0.000000e+00 0.000000e+00 0.000000e+00 0.000000e+00 0.000000e+00
<ENDHMM>
~h "o"
<BEGINHMM>
<NUMSTATES> 5
<STATE> 2
<MEAN> 39
 5.756342e-01 2.133857e+00 6.685141e-01 -5.928920e+00 -1.479087e-01 7.562734e-01 -5.193573e+00 -2.789770e+00 -2.263982e+00 8.114616e-01 2.129698e+00 -2.808978e+00 6.004874e+01 2.314736e+00 2.650280e-01 1.210900e-01 -1.414609e+00 -1.611015e+00 1.332168e+00 -9.503139e-01 -7.110606e-01 -1.100029e+00 -3.936637e-02 1.176726e+00 -1.907916e-01 1.515651e+00 -2.477649e-01 -2.719971e-02 1.938548e-01 6.790803e-02 -1.741194e-01 2.278115e-02 1.358479e-01 5.122606e-03 -1.076415e-01 -9.191038e-02 3.746412e-02 4.323917e-02 -1.504747e-01
<VARIANCE> 39
 2.774009e+01 2.999800e+01 2.432582e+01 4.463190e+01 4.243378e+01 3.584873e+01 5.368209e+01 3.613947e+01 4.347339e+01 3.227419e+01 2.934846e+01 1.819468e+01 5.426869e+01 3.233747e+00 3.202408e+00 3.786132e+00 4.553862e+00 4.106791e+00 4.049009e+00 4.469416e+00 3.862075e+00 3.927513e+00 3.815927e+00 3.195657e+00 2.112030e+00 3.162748e+00 5.648108e-01 5.091192e-01 4.125583e-01 6.980128e-01 6.920382e-01 6.623701e-01 7.088841e-01 5.509400e-01 5.843148e-01 5.127730e-01 4.102892e-01 3.244810e-01 6.101524e-01
<GCONST> 1.264950e+02
<STATE> 3
<MEAN> 39
 3.958125e+00 1.033599e+00 6.624269e-01 -9.980366e+00 -4.806517e+00 4.957296e+00 -7.641031e+00 -4.741610e+00 -5.424669e+00 -1.255863e-01 6.607542e+00 -2.674470e+00 6.427428e+01 2.857010e-01 -3.814088e-01 1.739941e-01 -2.091620e-01 -3.449104e-01 3.225953e-01 -4.408619e-01 -1.916478e-01 -2.117766e-01 9.766901e-02 5.719141e-01 -1.505405e-01 5.892528e-01 -5.339987e-01 1.104013e-01 1.703042e-01 7.356945e-01 5.301839e-01 -6.454179e-01 3.380632e-01 2.236757e-01 3.956776e-01 3.251635e-02 -6.214104e-01 -5.743755e-02 -5.758677e-01
<VARIANCE> 39
 9.719549e+00 2.349693e+01 2.103360e+01 4.425174e+01 3.598450e+01 3.538354e+01 5.310281e+01 4.505872e+01 5.041856e+01 5.290554e+01 4.217718e+01 2.458419e+01 2.696621e+01 1.151940e+00 2.120499e+00 1.666423e+00 4.841316e+00 4.062769e+00 3.693870e+00 4.159296e+00 3.211340e+00 3.574148e+00 3.092458e+00 2.664438e+00 1.832088e+00 2.207908e+00 2.879037e-01 3.708875e-01 3.939656e-01 5.810885e-01 6.176372e-01 5.102928e-01 6.906710e-01 6.422778e-01 5.975199e-01 7.043015e-01 5.234368e-01 3.943113e-01 2.634377e-01
<GCONST> 1.206067e+02
<STATE> 4
<MEAN> 39
 3.799330e+00 2.659187e+00 8.614077e-01 -1.074064e+01 -4.348682e+00 4.453648e+00 -3.960937e+00 -2.219677e+00 -4.505664e+00 -1.393272e+00 3.905709e+00 -2.788422e+00 6.153172e+01 -3.101101e-01 9.578576e-02 2.798297e-01 8.508852e-01 4.969121e-01 -4.384465e-01 1.982701e-01 7.224075e-02 3.286110e-01 7.813395e-02 -4.886740e-01 -1.397083e-01 -6.227663e-01 -1.625973e-01 7.135086e-02 9.738077e-02 2.993747e-01 1.311522e-01 -1.578294e-01 7.010498e-02 -1.156054e-02 7.927974e-02 -4.516011e-04 -1.300530e-01 1.917936e-02 -2.240046e-01
<VARIANCE> 39
 1.393860e+01 2.625949e+01 2.024616e+01 6.161074e+01 4.777104e+01 3.925831e+01 6.679744e+01 3.978364e+01 4.914960e+01 4.759255e+01 3.796816e+01 2.331564e+01 5.032942e+01 7.674478e-01 1.398336e+00 1.381332e+00 2.803170e+00 2.160200e+00 2.164296e+00 2.206738e+00 1.935474e+00 1.926756e+00 1.713334e+00 1.746789e+00 1.229736e+00 1.638885e+00 1.475591e-01 2.283170e-01 2.179450e-01 3.677382e-01 3.543257e-01 3.161607e-01 4.423024e-01 3.440867e-01 3.293418e-01 3.350490e-01 2.945042e-01 2.322141e-01 2.164869e-01
<GCONST> 1.090608e+02
<TRANSP> 5
 0.000000e+00 1.000000e+00 0.000000e+00 0.000000e+00 0.000000e+00
 0.000000e+00 4.446569e-01 5.553431e-01 0.000000e+00 0.000000e+00
 0.000000e+00 0.000000e+00 5.539004e-01 4.460997e-01 0.000000e+00
 0.000000e+00 0.000000e+00 0.000000e+00 7.698503e-01 2.301497e-01
 0.000000e+00 0.000000e+00 0.000000e+00 0.000000e+00 0.000000e+00
<ENDHMM>
~h "p"
<BEGINHMM>
<NUMSTATES> 5
<STATE> 2
<MEAN> 39
 -1.160184e-02 8.824465e+00 5.444002e+00 1.199657e+00 -1.386737e-02 -2.706284e+00 -2.658806e+00 -3.257445e+00 -1.842436e+00 5.890120e-01 6.927028e-01 -2.270442e+00 4.718916e+01 -1.533649e+00 1.700556e+00 4.200957e-01 1.250848e+00 4.628519e-01 -2.831482e-01 4.765803e-01 6.900901e-02 1.483790e-01 -3.233674e-01 -6.851071e-01 3.295615e-01 -3.204649e+00 -4.377520e-01 -1.060128e+00 -7.987692e-02 -1.271629e-01 1.207414e-02 6.575695e-02 -1.495253e-01 7.850654e-02 7.452506e-02 -1.047465e-01 1.965014e-02 -6.406906e-02 1.088938e+00
<VARIANCE> 39
 1.832498e+01 1.899046e+01 1.757250e+01 2.357460e+01 2.370862e+01 2.462730e+01 2.640445e+01 2.481689e+01 2.612539e+01 1.789364e+01 2.000614e+01 1.593176e+01 3.353522e+01 1.481591e+00 4.266925e+00 2.362087e+00 2.668538e+00 2.659546e+00 3.529372e+00 2.771816e+00 2.720719e+00 2.691478e+00 2.312598e+00 2.246920e+00 1.580109e+00 4.278903e+00 3.042099e-01 5.925184e-01 3.588485e-01 3.819195e-01 5.331827e-01 5.766086e-01 4.350661e-01 4.552779e-01 4.949780e-01 3.871037e-01 3.706716e-01 2.872481e-01 6.983716e-01
<GCONST> 1.135784e+02
<STATE> 3
<MEAN> 39
 -6.760955e+00 6.925545e+00 5.750978e+00 5.249601e+00 3.522871e+00 -6.820087e-01 -7.626392e-01 -2.269107e+00 -1.660802e+00 -1.010568e+00 -1.080571e+00 -2.056184e+00 4.174130e+01 -1.214589e+00 -1.788045e+00 -7.289768e-01 -2.743653e-01 2.847944e-01 3.567754e-02 3.737137e-01 3.515955e-01 5.733027e-01 -4.837506e-02 1.691519e-01 2.391073e-01 1.404117e+00 1.944446e-01 -6.369809e-01 -2.030665e-01 -4.997856e-01 -2.787169e-01 -2.049624e-01 -1.108699e-02 9.502745e-02 2.123224e-01 1.885594e-01 2.336666e-01 7.740178e-02 1.337448e+00
<VARIANCE> 39
 1.282602e+01 1.308502e+01 1.095096e+01 9.283479e+00 1.330169e+01 1.498174e+01 1.735964e+01 1.684864e+01 1.533597e+01 1.282061e+01 1.208136e+01 1.048153e+01 1.969205e+01 1.338681e+00 2.450624e+00 1.665071e+00 1.998152e+00 1.997611e+00 2.295666e+00 1.864649e+00 1.781102e+00 1.991742e+00 1.605183e+00 1.575295e+00 1.309144e+00 6.966094e+00 2.369022e-01 3.837175e-01 3.932721e-01 3.116989e-01 3.745196e-01 4.537731e-01 3.617661e-01 3.631476e-01 3.457873e-01 2.995861e-01 3.116994e-01 2.483493e-01 5.661904e-01
<GCONST> 1.007446e+02
<STATE> 4
<MEAN> 39
 -1.046682e+01 -4.079610e+00 2.477251e+00 7.742912e-03 1.611948e+00 -3.182997e+00 4.507141e-01 -7.838743e-01 2.211594e+00 3.325572e-01 1.183559e+00 -1.520563e-02 5.831518e+01 2.262067e-01 -1.075012e+00 -9.825484e-02 -8.611797e-01 -2.595727e-01 2.075558e-01 1.601632e-01 2.370241e-01 1.996452e-01 6.139765e-02 2.214117e-02 -3.603132e-02 2.526833e+00 6.717561e-01 7.630522e-01 3.200096e-01 1.145456e-01 -9.353809e-02 1.542391e-01 -2.605997e-01 -1.265194e-01 -4.208389e-01 -1.157000e-01 -2.018468e-01 -2.944367e-01 -5.484260e-01
<VARIANCE> 39
 2.466088e+01 2.071716e+01 4.312376e+01 2.623491e+01 2.854486e+01 3.182182e+01 2.696764e+01 2.398545e+01 2.089973e+01 1.957045e+01 1.732422e+01 1.413332e+01 4.557224e+01 3.889011e+00 5.365098e+00 3.874391e+00 3.304488e+00 3.177373e+00 3.839300e+00 3.279335e+00 2.643953e+00 2.949901e+00 2.155718e+00 2.399931e+00 1.994760e+00 6.737198e+00 4.427210e-01 5.891141e-01 5.558809e-01 6.643727e-01 6.471417e-01 7.743520e-01 6.699685e-01 5.029936e-01 5.192058e-01 4.470739e-01 4.176714e-01 3.584665e-01 8.460276e-01
<GCONST> 1.214891e+02
<TRANSP> 5
 0.000000e+00 1.000000e+00 0.000000e+00 0.000000e+00 0.000000e+00
 0.000000e+00 6.277828e-01 3.722172e-01 0.000000e+00 0.000000e+00
 0.000000e+00 0.000000e+00 7.223447e-01 2.776553e-01 0.000000e+00
 0.000000e+00 0.000000e+00 0.000000e+00 7.494987e-01 2.505014e-01
 0.000000e+00 0.000000e+00 0.000000e+00 0.000000e+00 0.000000e+00
<ENDHMM>
~h "r"
<BEGINHMM>
<NUMSTATES> 5
<STATE> 2
<MEAN> 39
 1.750766e+00 -2.488260e+00 4.392185e+00 3.170860e+00 -3.011034e+00 -3.338124e+00 -8.646698e+00 -5.129669e+00 2.697057e+00 9.262115e-01 6.243730e-01 -3.093342e+00 6.217780e+01 5.935843e-02 2.008945e-01 2.713491e-01 1.748525e+00 6.627030e-01 -5.340328e-01 2.427918e-01 -6.010639e-01 6.628139e-01 -2.248408e-01 -9.238686e-01 4.088370e-01 -1.348288e+00 -2.813587e-01 -9.687162e-02 3.581389e-02 -8.469809e-01 -1.504698e-01 1.462194e-01 6.915920e-02 4.630427e-01 -3.957804e-01 -1.032332e-01 2.111682e-01 2.463818e-02 5.436088e-01
<VARIANCE> 39
 2.000438e+01 3.055451e+01 5.571377e+01 3.388501e+01 3.535051e+01 3.883775e+01 5.165806e+01 6.025759e+01 4.675703e+01 3.667828e+01 3.122098e+01 1.915258e+01 3.941764e+01 1.436326e+00 2.173174e+00 3.268150e+00 3.589318e+00 3.720244e+00 4.412666e+00 3.977307e+00 3.904995e+00 3.316111e+00 3.369553e+00 3.372369e+00 1.921695e+00 1.837873e+00 2.509283e-01 3.844322e-01 4.059360e-01 5.842902e-01 7.183856e-01 5.159290e-01 6.397919e-01 6.516548e-01 5.511149e-01 5.696347e-01 5.269087e-01 3.403795e-01 4.643160e-01
<GCONST> 1.231623e+02
<STATE> 3
<MEAN> 39
 -7.661390e-02 -1.350510e+00 5.593470e+00 4.359177e+00 -9.228612e-01 -4.232643e+00 -7.170614e+00 -4.893948e+00 2.717172e+00 -5.284531e-01 -8.242104e-01 -1.897794e+00 6.032243e+01 -2.148893e-01 -6.482143e-01 2.814989e-01 -4.677089e-01 -5.852519e-01 1.364557e-01 -3.005471e-01 4.450238e-01 -6.331243e-02 -2.031617e-01 9.848257e-02 3.040675e-01 7.126341e-01 1.786820e-02 -3.414803e-01 -1.325918e-02 -1.009481e+00 -5.937566e-01 2.464947e-01 -3.116277e-01 5.283782e-01 -4.203931e-01 1.304147e-01 4.756902e-01 -2.148215e-01 9.461335e-01
<VARIANCE> 39
 2.313897e+01 2.900628e+01 4.751847e+01 3.197125e+01 3.206919e+01 3.283150e+01 3.973427e+01 3.809255e+01 3.509093e+01 2.864607e+01 2.115536e+01 1.661257e+01 3.908193e+01 1.953360e+00 1.689285e+00 3.051786e+00 2.101681e+00 2.514575e+00 2.626473e+00 2.519018e+00 2.727142e+00 2.659261e+00 2.194782e+00 1.894274e+00 1.394066e+00 1.378702e+00 3.993043e-01 4.810255e-01 5.323073e-01 6.816398e-01 9.266808e-01 8.553550e-01 8.987716e-01 8.043966e-01 7.520620e-01 7.986358e-01 7.964829e-01 4.161892e-01 4.046436e-01
<GCONST> 1.204188e+02
<STATE> 4
<MEAN> 39
 1.204893e-01 -4.551016e+00 5.589343e+00 1.108705e+00 -4.723271e+00 -3.339055e+00 -9.340838e+00 -3.184592e+00 2.760185e+00 -4.038067e-01 6.124946e-01 -1.487917e+00 6.506900e+01 6.111068e-02 -1.080153e+00 2.125406e-01 -1.667445e+00 -1.415023e+00 5.660459e-01 -9.210441e-01 1.202547e+00 -5.407784e-01 1.009840e-01 7.761955e-01 -2.401661e-01 1.854950e+00 2.810352e-02 1.000360e-01 -7.454550e-02 -4.970496e-01 1.591629e-02 9.941742e-02 1.579954e-02 2.138551e-01 -2.964478e-01 1.528355e-01 2.113588e-01 -3.023387e-01 2.574462e-01
<VARIANCE> 39
 2.135177e+01 2.359289e+01 5.333352e+01 3.122750e+01 2.871617e+01 4.012530e+01 4.775038e+01 4.396861e+01 4.210192e+01 3.001735e+01 2.314147e+01 1.684916e+01 2.881590e+01 2.363159e+00 2.074470e+00 3.228793e+00 2.603465e+00 3.554444e+00 3.790719e+00 3.328238e+00 3.579548e+00 3.559532e+00 3.223453e+00 3.078372e+00 1.885899e+00 1.584721e+00 2.850557e-01 2.820226e-01 3.605234e-01 4.452172e-01 6.491697e-01 5.978521e-01 6.697741e-01 5.610129e-01 5.064576e-01 5.060912e-01 4.540719e-01 2.986506e-01 1.991072e-01
<GCONST> 1.186924e+02
<TRANSP> 5
 0.000000e+00 1.000000e+00 0.000000e+00 0.000000e+00 0.000000e+00
 0.000000e+00 3.016751e-01 6.983249e-01 0.000000e+00 0.000000e+00
 0.000000e+00 0.000000e+00 1.861923e-01 8.138077e-01 0.000000e+00
 0.000000e+00 0.000000e+00 0.000000e+00 1.111573e-01 8.888428e-01
 0.000000e+00 0.000000e+00 0.000000e+00 0.000000e+00 0.000000e+00
<ENDHMM>
~h "s"
<BEGINHMM>
<NUMSTATES> 5
<STATE> 2
<MEAN> 39
 -8.679604e+00 7.318718e+00 5.727765e+00 4.588625e-01 4.649554e+00 -6.377168e+00 -2.536679e+00 -1.268903e+00 1.055453e+00 1.294848e-01 -6.702635e-01 -1.296926e+00 6.050826e+01 -3.841856e+00 1.583565e+00 -9.141240e-02 6.538488e-01 1.522713e+00 2.535423e-01 1.479283e+00 3.649159e-01 2.567405e-01 -7.975287e-01 -8.751205e-04 6.169360e-01 -6.429310e-01 -1.631504e-01 -7.857530e-01 -3.401638e-01 -4.172342e-01 -3.075204e-01 3.883868e-01 -5.516397e-02 9.247610e-02 -1.693761e-01 1.182774e-02 1.269588e-01 -1.518581e-01 2.424760e-01
<VARIANCE> 39
 4.175864e+01 2.809440e+01 3.152883e+01 2.402191e+01 2.940731e+01 3.242155e+01 3.516489e+01 2.603092e+01 2.566351e+01 2.397683e+01 2.199664e+01 1.620453e+01 4.620016e+01 2.470467e+00 3.478960e+00 3.538068e+00 3.188225e+00 2.802144e+00 3.672737e+00 3.400010e+00 3.339577e+00 3.027741e+00 2.599519e+00 2.655901e+00 1.880088e+00 2.019024e+00 7.722898e-01 6.757774e-01 3.581401e-01 4.241901e-01 4.950067e-01 4.598887e-01 5.493250e-01 4.732746e-01 3.950103e-01 4.147902e-01 3.731976e-01 3.016461e-01 2.255417e-01
<GCONST> 1.180503e+02
<STATE> 3
<MEAN> 39
 -2.051269e+01 5.777584e+00 3.035589e+00 -6.441623e-01 6.668340e+00 -3.103963e+00 9.184101e-01 9.501957e-02 3.114059e-01 -1.785150e+00 -2.055976e-01 -7.812202e-01 6.027648e+01 -1.077498e+00 -1.246698e+00 -9.769218e-01 -7.497583e-01 -3.549584e-01 9.815992e-02 3.321806e-01 2.665696e-01 1.757037e-01 4.500502e-03 -8.616383e-03 3.489414e-02 1.728680e-01 1.226305e+00 -3.652027e-01 1.314610e-01 -1.579246e-01 -4.498296e-01 -2.652527e-01 -3.971661e-01 -7.889346e-02 7.299583e-02 2.120830e-01 -4.528244e-02 -1.026073e-01 1.303466e-01
<VARIANCE> 39
 2.609175e+01 1.762571e+01 3.685294e+01 2.698481e+01 2.422045e+01 2.797781e+01 2.672572e+01 2.139806e+01 1.841910e+01 1.785504e+01 1.482229e+01 1.154681e+01 3.056612e+01 3.076272e+00 1.607381e+00 1.408299e+00 1.376094e+00 1.658668e+00 1.931105e+00 1.580020e+00 1.521465e+00 1.523322e+00 1.323651e+00 1.211397e+00 1.031790e+00 9.103906e-01 4.632950e-01 4.250413e-01 4.182575e-01 4.295471e-01 3.875147e-01 4.239099e-01 4.412120e-01 4.162714e-01 3.787373e-01 3.446979e-01 3.186754e-01 2.713161e-01 1.747145e-01
<GCONST> 1.039965e+02
<STATE> 4
<MEAN> 39
 -1.707744e+01 4.077119e-01 4.510879e-01 -3.078121e+00 3.657008e+00 -5.474560e+00 5.478284e-01 6.436194e-01 2.377888e+00 -5.598691e-01 -4.793411e-01 -4.637158e-01 6.063025e+01 2.945439e+00 -7.439877e-01 5.700458e-01 -1.563295e-01 -5.669377e-01 -4.776555e-02 -8.960728e-01 -2.772934e-01 -2.025196e-02 2.431899e-01 -4.436338e-01 -5.524416e-01 3.938863e-01 9.052616e-01 2.837496e-01 3.472449e-01 1.602298e-01 -6.574631e-02 2.018985e-01 -3.672544e-01 -2.072139e-01 -2.971261e-01 7.040459e-02 1.101888e-03 -2.444358e-01 1.503421e-01
<VARIANCE> 39
 3.768064e+01 1.976558e+01 2.714565e+01 2.268655e+01 2.506860e+01 2.456705e+01 2.610267e+01 1.945564e+01 1.788270e+01 1.723416e+01 1.884228e+01 1.342651e+01 3.328321e+01 4.225481e+00 2.324689e+00 2.629757e+00 2.823164e+00 2.529020e+00 2.945279e+00 2.781673e+00 2.447006e+00 2.319022e+00 1.979034e+00 2.088327e+00 1.602658e+00 1.708166e+00 5.201148e-01 3.927860e-01 3.773970e-01 4.613660e-01 4.904713e-01 4.721304e-01 4.924332e-01 4.427392e-01 4.377238e-01 3.755039e-01 3.959275e-01 2.824457e-01 3.171530e-01
<GCONST> 1.121511e+02
<TRANSP> 5
 0.000000e+00 1.000000e+00 0.000000e+00 0.000000e+00 0.000000e+00
 0.000000e+00 6.031046e-01 3.968954e-01 0.000000e+00 0.000000e+00
 0.000000e+00 0.000000e+00 6.886837e-01 3.113163e-01 0.000000e+00
 0.000000e+00 0.000000e+00 0.000000e+00 6.420690e-01 3.579309e-01
 0.000000e+00 0.000000e+00 0.000000e+00 0.000000e+00 0.000000e+00
<ENDHMM>
~h "t"
<BEGINHMM>
<NUMSTATES> 5
<STATE> 2
<MEAN> 39
 -3.169332e+00 9.001657e+00 6.629857e+00 1.527036e+00 1.642139e+00 -5.585839e+00 -3.622580e+00 -2.347701e+00 1.352715e-01 6.913065e-01 -8.580011e-01 -2.340114e+00 4.881582e+01 -9.436954e-01 1.123158e+00 1.396717e-01 1.070669e+00 1.816633e-01 6.014503e-01 7.437637e-01 -1.171156e-01 -4.996700e-01 -4.337152e-01 1.435202e-02 3.231648e-01 -3.362570e+00 -2.878543e-01 -9.513056e-01 -2.635334e-01 -2.854353e-01 3.343495e-02 2.335447e-01 -1.093810e-02 1.049027e-02 -6.214572e-02 -6.399226e-02 8.952554e-02 -2.946642e-02 9.664864e-01
<VARIANCE> 39
 1.841773e+01 1.987377e+01 1.866689e+01 2.167286e+01 2.863386e+01 2.452408e+01 2.927658e+01 2.555027e+01 2.581164e+01 1.932943e+01 1.957836e+01 1.499060e+01 6.201027e+01 2.155351e+00 4.202286e+00 2.338860e+00 2.229457e+00 3.368949e+00 2.893433e+00 3.007101e+00 2.665469e+00 2.672984e+00 2.355033e+00 2.362532e+00 1.689615e+00 5.403887e+00 3.626238e-01 6.128969e-01 3.755486e-01 4.960123e-01 6.854302e-01 4.537219e-01 5.086541e-01 4.749143e-01 4.919530e-01 3.914370e-01 3.759954e-01 3.347785e-01 1.471792e+00
<GCONST> 1.167942e+02
<STATE> 3
<MEAN> 39
 -7.760748e+00 6.667141e+00 5.952387e+00 4.757753e+00 4.392454e+00 -7.416892e-01 -4.297559e-01 -2.254603e+00 -1.777547e+00 -1.127249e+00 -1.202609e+00 -2.086205e+00 4.264840e+01 -1.824918e+00 -2.208434e+00 -1.187589e+00 -1.594882e+00 4.318110e-01 -1.115110e-01 6.023011e-01 4.105920e-01 4.486610e-01 -1.325333e-01 3.175822e-01 4.595563e-01 2.447840e+00 -6.177978e-02 -4.212663e-01 -3.594424e-01 -7.639285e-01 -2.454336e-01 -5.503832e-01 -1.107257e-01 1.496630e-01 4.116081e-01 2.085498e-01 1.136511e-01 1.608170e-01 1.598389e+00
<VARIANCE> 39
 1.612536e+01 1.513700e+01 1.285496e+01 1.438603e+01 1.638986e+01 1.704241e+01 1.821684e+01 1.780659e+01 1.674072e+01 1.408029e+01 1.258839e+01 1.071092e+01 2.974677e+01 1.928787e+00 2.338902e+00 1.819226e+00 3.656572e+00 2.235111e+00 2.952727e+00 2.081585e+00 2.111850e+00 2.016035e+00 1.630708e+00 1.634401e+00 1.473517e+00 8.714642e+00 3.495775e-01 3.919913e-01 3.254012e-01 4.479719e-01 4.229701e-01 4.159935e-01 3.874157e-01 4.107852e-01 3.854071e-01 3.359698e-01 3.365341e-01 2.770199e-01 7.541280e-01
<GCONST> 1.063838e+02
<STATE> 4
<MEAN> 39
 -1.517003e+01 -1.839000e+00 4.118333e-02 -5.252041e+00 3.226483e+00 -5.824783e+00 5.232325e-01 -6.652781e-02 2.166933e+00 -2.896082e-01 7.464907e-01 8.503984e-01 6.107400e+01 2.340910e-01 -7.736761e-01 -5.022270e-01 -4.640639e-01 -1.231490e-01 -2.612256e-01 -1.143345e-01 3.999028e-01 6.374689e-01 1.305438e-01 -3.053573e-01 -7.292692e-02 2.355861e+00 1.131043e+00 6.453112e-01 5.250041e-01 6.823618e-01 -8.950610e-02 4.137278e-01 -3.068142e-01 -1.702586e-01 -3.615305e-01 -5.530767e-03 -2.617981e-01 -4.471340e-01 -8.720612e-01
<VARIANCE> 39
 2.698583e+01 1.942647e+01 2.113318e+01 1.854246e+01 2.151202e+01 2.379952e+01 2.313877e+01 2.151110e+01 1.996020e+01 1.714034e+01 1.564596e+01 1.334044e+01 3.352360e+01 5.915831e+00 3.055435e+00 3.773873e+00 4.660277e+00 2.686472e+00 3.769835e+00 2.651775e+00 2.647595e+00 2.789428e+00 2.036931e+00 2.646163e+00 2.306512e+00 8.304614e+00 4.004429e-01 4.637843e-01 4.723569e-01 5.839007e-01 5.494626e-01 6.855796e-01 5.518549e-01 5.648167e-01 5.672879e-01 4.464879e-01 4.474308e-01 3.864241e-01 8.237077e-01
<GCONST> 1.182999e+02
<TRANSP> 5
 0.000000e+00 1.000000e+00 0.000000e+00 0.000000e+00 0.000000e+00
 0.000000e+00 6.999428e-01 3.000572e-01 0.000000e+00 0.000000e+00
 0.000000e+00 0.000000e+00 6.521975e-01 3.478025e-01 0.000000e+00
 0.000000e+00 0.000000e+00 0.000000e+00 7.496828e-01 2.503172e-01
 0.000000e+00 0.000000e+00 0.000000e+00 0.000000e+00 0.000000e+00
<ENDHMM>
~h "u"
<BEGINHMM>
<NUMSTATES> 5
<STATE> 2
<MEAN> 39
 -4.119312e+00 2.077009e+00 2.402240e+00 -1.177875e+00 2.008232e+00 -2.206160e+00 -3.594100e+00 -3.930625e+00 -1.208812e+00 -1.288901e+00 1.738805e+00 -2.489501e+00 5.942296e+01 2.073569e+00 1.724717e-01 2.612239e-01 -3.705910e-01 -5.640028e-01 3.067495e-01 -1.293934e+00 -7.989924e-01 -6.044973e-01 9.116344e-02 9.565578e-01 -3.619407e-01 1.176308e+00 1.595331e-01 2.035679e-02 2.275491e-01 1.106528e-02 -3.768144e-01 2.047580e-01 -4.336588e-02 -5.198364e-02 -2.084805e-01 1.100124e-01 2.286468e-02 -7.436024e-02 -1.388635e-01
<VARIANCE> 39
 4.889250e+01 2.585684e+01 3.119242e+01 4.126941e+01 3.680367e+01 3.752013e+01 4.267575e+01 3.108516e+01 3.957738e+01 2.702471e+01 2.534694e+01 1.676360e+01 5.994580e+01 5.636573e+00 3.362218e+00 4.108636e+00 4.311443e+00 4.053351e+00 3.586018e+00 4.319949e+00 4.105089e+00 4.117993e+00 3.022555e+00 3.169945e+00 2.178572e+00 3.651597e+00 5.439835e-01 4.818338e-01 4.400104e-01 6.987880e-01 6.031678e-01 6.118348e-01 5.909791e-01 5.391507e-01 6.010486e-01 4.792475e-01 4.313529e-01 3.515850e-01 5.634612e-01
<GCONST> 1.262748e+02
<STATE> 3
<MEAN> 39
 1.211227e+00 1.780444e+00 3.013656e+00 -3.921938e+00 -1.706325e+00 1.273172e-01 -7.227892e+00 -5.688631e+00 -4.022392e+00 -1.074702e+00 5.071027e+00 -3.344868e+00 6.314668e+01 1.404464e+00 -3.961751e-01 3.861678e-01 -1.652118e-01 -9.595538e-01 6.567740e-01 -1.253366e+00 -5.458978e-01 -5.298699e-01 3.933927e-01 9.172521e-01 -4.066971e-01 7.101200e-01 -5.560535e-01 -3.788548e-02 1.327255e-01 4.471746e-01 1.210471e-01 -1.920866e-01 4.581510e-01 2.294995e-01 2.157171e-01 1.000001e-01 -5.226378e-01 2.409973e-02 -5.046341e-01
<VARIANCE> 39
 2.328835e+01 2.231193e+01 3.046979e+01 4.962350e+01 3.458010e+01 4.210289e+01 5.112338e+01 4.424978e+01 4.422096e+01 4.048968e+01 3.964428e+01 2.154678e+01 2.958749e+01 2.848524e+00 2.736582e+00 2.752101e+00 3.970438e+00 3.782405e+00 3.524125e+00 4.408137e+00 3.897326e+00 4.689240e+00 3.111540e+00 2.860981e+00 2.019890e+00 2.687207e+00 4.661536e-01 3.721870e-01 5.013561e-01 6.945665e-01 6.069499e-01 5.815212e-01 6.869190e-01 6.759734e-01 5.733848e-01 5.713412e-01 6.008180e-01 4.076137e-01 3.050794e-01
<GCONST> 1.248632e+02
<STATE> 4
<MEAN> 39
 2.068051e+00 1.367550e+00 3.019114e+00 -4.188763e+00 -2.564562e+00 1.159977e+00 -7.984336e+00 -5.458882e+00 -4.645762e+00 -4.094286e-01 5.280930e+00 -3.992757e+00 6.325533e+01 1.157497e-01 -1.139895e-01 5.674349e-01 9.908302e-01 -5.656975e-02 -4.432223e-01 2.703112e-03 4.275420e-02 3.000941e-01 3.190351e-01 -6.133670e-01 -2.342357e-01 -4.214218e-01 -3.565170e-01 1.331876e-01 1.267992e-01 3.350565e-01 1.821014e-01 -2.826210e-01 4.366186e-01 1.132004e-01 1.718436e-01 -7.587356e-02 -4.315382e-01 1.167742e-01 -3.767315e-01
<VARIANCE> 39
 1.742266e+01 2.659286e+01 3.048697e+01 5.716008e+01 3.711962e+01 4.340087e+01 6.208076e+01 5.053591e+01 5.471810e+01 4.574751e+01 4.290216e+01 2.397853e+01 3.276746e+01 1.078510e+00 1.930795e+00 1.830450e+00 3.490214e+00 2.689345e+00 2.958252e+00 3.223782e+00 2.903769e+00 3.347517e+00 2.431493e+00 2.418660e+00 1.631318e+00 2.030264e+00 3.061643e-01 3.136609e-01 3.554382e-01 4.881076e-01 5.324008e-01 4.894193e-01 7.379611e-01 6.310315e-01 5.706726e-01 5.096110e-01 5.135623e-01 3.431644e-01 2.830639e-01
<GCONST> 1.196044e+02
<TRANSP> 5
 0.000000e+00 1.000000e+00 0.000000e+00 0.000000e+00 0.000000e+00
 0.000000e+00 3.542972e-01 6.457028e-01 0.000000e+00 0.000000e+00
 0.000000e+00 0.000000e+00 2.535924e-01 7.464076e-01 0.000000e+00
 0.000000e+00 0.000000e+00 0.000000e+00 5.466354e-01 4.533646e-01
 0.000000e+00 0.000000e+00 0.000000e+00 0.000000e+00 0.000000e+00
<ENDHMM>
~h "ae"
<BEGINHMM>
<NUMSTATES> 5
<STATE> 2
<MEAN> 39
 -4.828335e+00 -9.663124e-01 7.739018e+00 -1.149880e+00 -3.911886e+00 -8.226817e+00 -2.017752e+00 9.930927e-01 -1.173393e+00 -1.322078e+00 4.845732e-01 -1.639925e+00 6.448447e+01 1.283568e+00 -1.021836e+00 8.139740e-01 -7.672540e-01 -1.834769e+00 -9.470699e-01 -1.018714e+00 1.413239e+00 -2.888290e-01 5.520897e-02 5.652351e-01 -2.176851e-01 2.545590e+00 5.339678e-03 1.186713e-01 -1.188467e-01 9.981887e-02 1.271454e-01 2.629725e-01 -1.053570e-01 -8.132315e-02 -9.954375e-03 2.316567e-01 2.190071e-02 -9.919742e-02 -4.445229e-01
<VARIANCE> 39
 2.289517e+01 2.021354e+01 2.990886e+01 2.335894e+01 3.174261e+01 2.979671e+01 4.775084e+01 3.279818e+01 3.304196e+01 2.489729e+01 2.669374e+01 1.822733e+01 4.006632e+01 3.859587e+00 2.859288e+00 2.814574e+00 3.060195e+00 3.094999e+00 3.124811e+00 3.749330e+00 3.440988e+00 3.386710e+00 2.709410e+00 2.534321e+00 2.149547e+00 3.702704e+00 5.918154e-01 3.714724e-01 5.289614e-01 4.390739e-01 5.758372e-01 5.360926e-01 5.777975e-01 5.065067e-01 4.347874e-01 3.538543e-01 3.651406e-01 3.049976e-01 5.395897e-01
<GCONST> 1.197017e+02
<STATE> 3
<MEAN> 39
 -2.870802e+00 -4.273204e+00 9.639071e+00 -3.707161e+00 -8.332903e+00 -8.194399e+00 -5.242247e+00 5.090343e+00 -1.925728e+00 2.279595e-02 1.907099e+00 -2.298559e+00 6.949761e+01 1.358980e-01 -3.368272e-01 -3.540557e-02 -2.610587e-01 -2.177573e-01 8.096767e-02 -1.890416e-01 3.804955e-01 -2.594321e-02 2.210729e-01 1.297540e-01 -1.646816e-01 3.174919e-01 -3.525740e-02 3.673640e-01 -1.721145e-01 3.323263e-01 5.330630e-01 1.421002e-01 8.842327e-02 -5.101201e-01 3.244856e-02 1.275857e-02 -1.488473e-01 -4.503549e-02 -6.262845e-01
<VARIANCE> 39
 7.994132e+00 1.614790e+01 2.526781e+01 2.358634e+01 2.955980e+01 3.040055e+01 4.133928e+01 3.218207e+01 4.472154e+01 2.974907e+01 2.907438e+01 1.795234e+01 2.467676e+01 6.402408e-01 9.595110e-01 1.139136e+00 9.838327e-01 1.510347e+00 1.308940e+00 1.805524e+00 1.534844e+00 1.504952e+00 1.134949e+00 1.088586e+00 8.953372e-01 7.524000e-01 2.180838e-01 2.135258e-01 2.385222e-01 2.512114e-01 3.066664e-01 3.178013e-01 3.638001e-01 3.578618e-01 3.147480e-01 2.791570e-01 2.423678e-01 1.994193e-01 2.090501e-01
<GCONST> 9.785596e+01
<STATE> 4
<MEAN> 39
 -1.913475e+00 -2.564315e+00 8.202886e+00 -1.643517e+00 -5.248453e+00 -8.320727e+00 -4.766611e+00 3.254975e+00 -1.486746e+00 -1.889767e-01 1.417193e+00 -3.173498e+00 6.677513e+01 4.367437e-01 1.173756e+00 -3.740641e-01 8.318283e-01 1.310992e+00 3.973698e-01 -1.675424e-01 -1.161569e+00 -4.919438e-02 3.269365e-01 -2.190607e-01 -2.560415e-01 -1.783293e+00 -7.854154e-02 4.137632e-01 -1.142618e-01 1.626429e-01 2.437693e-01 2.697842e-01 1.960358e-01 -3.633326e-01 -5.240383e-03 3.538777e-02 -4.897271e-02 5.135820e-02 -6.054163e-01
<VARIANCE> 39
 9.073926e+00 2.074820e+01 2.969746e+01 2.615779e+01 3.313507e+01 3.540811e+01 5.937599e+01 3.660525e+01 5.127346e+01 3.480774e+01 3.373335e+01 2.277426e+01 3.547745e+01 1.081619e+00 2.089942e+00 1.693459e+00 1.964549e+00 2.029068e+00 2.382785e+00 2.459698e+00 2.154418e+00 2.481961e+00 2.050497e+00 1.777180e+00 1.429677e+00 2.396090e+00 2.212906e-01 2.979603e-01 2.542286e-01 3.165940e-01 3.802621e-01 3.736850e-01 4.518013e-01 4.212384e-01 5.094771e-01 3.512456e-01 3.332340e-01 2.568880e-01 3.499501e-01
<GCONST> 1.106387e+02
<TRANSP> 5
 0.000000e+00 1.000000e+00 0.000000e+00 0.000000e+00 0.000000e+00
 0.000000e+00 5.104928e-01 4.895072e-01 0.000000e+00 0.000000e+00
 0.000000e+00 0.000000e+00 6.668851e-01 3.331148e-01 0.000000e+00
 0.000000e+00 0.000000e+00 0.000000e+00 5.700566e-01 4.299435e-01
 0.000000e+00 0.000000e+00 0.000000e+00 0.000000e+00 0.000000e+00
<ENDHMM>
~h "bb"
<BEGINHMM>
<NUMSTATES> 5
<STATE> 2
<MEAN> 39
 -1.509588e+00 9.699708e+00 6.216725e+00 2.939611e+00 2.648553e-01 -3.180615e+00 -3.116102e+00 -3.730469e+00 -2.270410e+00 1.496345e-03 7.779457e-02 -1.781503e+00 4.440863e+01 -1.549817e+00 8.967949e-01 2.507706e-01 1.002413e+00 6.252707e-01 1.670223e-01 3.093067e-01 1.133784e-01 4.087449e-02 -4.375815e-01 -5.065469e-01 2.010104e-01 -2.397749e+00 -1.605982e-01 -9.342977e-01 -1.274824e-01 -1.907771e-01 1.595360e-02 1.569903e-01 -2.910047e-03 8.403182e-02 3.771508e-02 -4.656605e-02 6.754670e-02 -9.966246e-02 9.786038e-01
<VARIANCE> 39
 1.866825e+01 1.492772e+01 1.443485e+01 1.892412e+01 1.819235e+01 1.778047e+01 2.113939e+01 2.195250e+01 2.137325e+01 1.583490e+01 1.523992e+01 1.263580e+01 2.397349e+01 9.788738e-01 4.628023e+00 1.677134e+00 1.974716e+00 1.981735e+00 2.887937e+00 1.976639e+00 2.344305e+00 2.112313e+00 1.981758e+00 1.741139e+00 1.408210e+00 3.900639e+00 2.917760e-01 4.820009e-01 3.297044e-01 3.459540e-01 4.165916e-01 4.686825e-01 3.833680e-01 4.092721e-01 3.844647e-01 3.555820e-01 2.950939e-01 2.514324e-01 4.877558e-01
<GCONST> 1.058471e+02
<STATE> 3
<MEAN> 39
 -8.041888e+00 6.052902e+00 5.104307e+00 5.594788e+00 4.265852e+00 7.008716e-01 3.236363e-01 -1.452259e+00 -1.323978e+00 -1.024182e+00 -1.039424e+00 -1.921491e+00 4.019543e+01 -5.834647e-01 -1.512141e+00 -1.009801e+00 -8.094105e-01 6.358779e-02 -1.102411e-02 2.166069e-01 1.523786e-01 4.249867e-01 4.602159e-02 2.036901e-01 -2.373661e-02 1.613610e+00 5.425076e-01 -3.462924e-01 -2.961822e-01 -6.976414e-01 -3.865467e-01 -2.814748e-01 -2.879933e-01 -1.874194e-01 3.545189e-02 1.636378e-01 2.399281e-01 -9.312498e-02 1.346223e+00
<VARIANCE> 39
 1.046851e+01 1.035862e+01 9.981237e+00 8.842954e+00 9.487742e+00 1.115685e+01 1.358522e+01 1.466726e+01 1.347487e+01 1.275506e+01 1.152164e+01 1.020251e+01 1.287493e+01 1.209475e+00 1.790131e+00 1.353489e+00 2.135167e+00 1.519889e+00 2.073325e+00 1.747132e+00 1.663119e+00 1.417179e+00 1.349773e+00 1.311195e+00 1.091660e+00 6.749003e+00 2.513569e-01 3.035818e-01 2.726238e-01 4.604700e-01 2.962523e-01 3.605071e-01 3.355872e-01 3.320027e-01 3.085172e-01 3.091180e-01 3.242642e-01 3.095815e-01 7.958318e-01
<GCONST> 9.627757e+01
<STATE> 4
<MEAN> 39
 -7.005342e+00 -1.682606e+00 -7.846917e-01 -2.040555e+00 1.695580e+00 -3.372657e+00 -1.788590e+00 -3.374725e+00 3.000928e-01 -2.908248e-01 1.163078e+00 -1.857328e+00 5.678947e+01 2.284248e+00 -2.115100e+00 -1.542422e+00 -3.278012e+00 -1.075227e+00 1.081735e-01 -1.064128e+00 -5.868189e-01 -2.673079e-02 3.730423e-01 1.002503e+00 -1.028916e+00 6.148746e+00 6.418203e-01 4.335013e-01 4.238247e-01 -4.234805e-02 -1.632086e-01 5.351578e-01 -1.765011e-01 1.498109e-01 -2.529506e-01 4.239718e-02 -3.851856e-02 -3.623348e-01 -3.679920e-01
<VARIANCE> 39
 2.077415e+01 1.500976e+01 1.588416e+01 2.779752e+01 1.696170e+01 2.169406e+01 1.854908e+01 1.797410e+01 1.588378e+01 1.498136e+01 1.353046e+01 1.430864e+01 6.775730e+01 2.452609e+00 4.402012e+00 3.257685e+00 4.841314e+00 3.094255e+00 4.090474e+00 3.077488e+00 3.042636e+00 3.116763e+00 2.657102e+00 3.274242e+00 3.160954e+00 4.533520e+00 5.698683e-01 6.472029e-01 4.107353e-01 7.629839e-01 5.938405e-01 5.417308e-01 5.803667e-01 5.164310e-01 5.035787e-01 4.769890e-01 4.518362e-01 3.840652e-01 1.200567e+00
<GCONST> 1.185644e+02
<TRANSP> 5
 0.000000e+00 1.000000e+00 0.000000e+00 0.000000e+00 0.000000e+00
 0.000000e+00 7.202767e-01 2.797233e-01 0.000000e+00 0.000000e+00
 0.000000e+00 0.000000e+00 7.395971e-01 2.604029e-01 0.000000e+00
 0.000000e+00 0.000000e+00 0.000000e+00 5.392616e-01 4.607384e-01
 0.000000e+00 0.000000e+00 0.000000e+00 0.000000e+00 0.000000e+00
<ENDHMM>
~h "dd"
<BEGINHMM>
<NUMSTATES> 5
<STATE> 2
<MEAN> 39
 -2.486789e+00 8.341396e+00 4.892665e+00 -3.442192e-01 2.462617e+00 -6.179566e+00 -3.037621e+00 -2.473763e+00 1.699232e+00 2.013676e+00 -8.761782e-01 -3.408058e+00 5.103807e+01 -7.525023e-01 2.256366e+00 4.004329e-01 1.442893e+00 -4.829108e-01 3.396939e-01 5.280489e-01 -6.080237e-03 -5.379637e-01 -5.228655e-01 5.080706e-02 5.516958e-01 -4.653352e+00 -1.584730e-01 -7.696363e-01 4.231302e-03 1.437400e-03 -2.340407e-01 3.737497e-01 -1.071370e-01 5.278727e-02 -2.144827e-01 -1.663848e-01 9.786170e-02 4.080077e-02 3.539380e-01
<VARIANCE> 39
 1.986313e+01 2.516359e+01 2.549694e+01 2.699153e+01 3.410714e+01 2.516264e+01 2.956171e+01 2.499292e+01 2.892186e+01 2.331937e+01 1.901605e+01 1.534398e+01 5.581582e+01 1.886038e+00 3.093564e+00 2.998101e+00 2.476594e+00 3.871109e+00 3.126103e+00 3.243693e+00 3.173482e+00 3.352671e+00 2.736376e+00 2.385071e+00 1.748934e+00 2.676331e+00 3.299306e-01 5.822634e-01 3.345314e-01 3.859713e-01 6.962296e-01 3.903832e-01 4.653211e-01 4.533481e-01 4.115537e-01 3.966872e-01 3.255289e-01 2.800071e-01 1.017306e+00
<GCONST> 1.164740e+02
<STATE> 3
<MEAN> 39
 -5.166901e+00 9.257409e+00 6.500019e+00 4.761633e+00 1.705346e+00 -3.004830e+00 -2.896232e+00 -3.506398e+00 -2.123390e+00 -9.453473e-01 -9.098906e-01 -2.105333e+00 4.153331e+01 -1.052727e+00 -8.346217e-01 -1.857487e-01 7.772187e-01 8.104274e-01 1.202409e+00 5.626072e-01 2.330920e-02 -4.405499e-01 -5.465440e-01 -2.585685e-01 3.004547e-02 -1.055994e+00 -7.517225e-02 -5.515800e-01 -2.351448e-01 -4.783062e-01 1.638845e-01 -7.616951e-02 1.608536e-01 1.966423e-01 2.742906e-01 1.343582e-01 1.322990e-02 -7.929812e-02 9.875622e-01
<VARIANCE> 39
 1.036547e+01 7.680599e+00 7.675191e+00 1.024919e+01 1.651478e+01 1.454393e+01 1.407415e+01 1.582909e+01 1.707797e+01 1.484203e+01 1.309781e+01 1.014151e+01 1.356300e+01 7.021599e-01 8.507907e-01 1.024196e+00 1.438246e+00 1.664194e+00 1.283610e+00 1.376269e+00 1.466024e+00 1.466835e+00 1.276719e+00 1.351331e+00 1.075039e+00 1.405164e+00 1.475722e-01 3.249720e-01 2.293896e-01 3.094521e-01 4.589923e-01 3.646930e-01 3.073469e-01 3.337943e-01 3.337668e-01 3.058216e-01 2.891027e-01 2.448634e-01 5.695868e-01
<GCONST> 9.177288e+01
<STATE> 4
<MEAN> 39
 -9.827584e+00 4.259692e+00 3.734090e+00 4.448320e+00 4.821558e+00 1.030145e+00 1.596282e+00 -4.896077e-01 -2.076040e-01 -5.692004e-01 -7.608203e-01 -1.799991e+00 4.035421e+01 -7.271315e-01 -1.580621e+00 -1.030075e+00 -1.548483e+00 -1.229537e-01 -7.368210e-01 1.990951e-01 1.605596e-01 5.960771e-01 1.197072e-01 2.049084e-01 2.752691e-01 2.429795e+00 3.800138e-01 -1.164981e-01 -9.791102e-02 -5.349699e-01 -3.432850e-01 -5.694405e-01 -4.235593e-01 -1.221806e-01 1.799931e-01 7.284264e-02 -1.894338e-02 -7.870199e-02 1.295264e+00
<VARIANCE> 39
 9.787480e+00 1.040410e+01 9.663645e+00 1.112603e+01 9.711874e+00 1.323508e+01 1.213785e+01 1.379712e+01 1.342807e+01 1.210433e+01 1.164206e+01 1.075840e+01 1.933713e+01 1.124039e+00 1.668108e+00 1.207381e+00 2.731725e+00 1.541261e+00 2.952810e+00 1.753225e+00 1.717204e+00 1.439485e+00 1.275672e+00 1.185825e+00 1.035002e+00 8.922401e+00 2.672544e-01 2.030519e-01 2.196546e-01 3.281575e-01 3.094473e-01 3.820497e-01 3.091738e-01 3.147689e-01 3.050125e-01 2.763406e-01 2.833906e-01 2.509125e-01 7.583910e-01
<GCONST> 9.587671e+01
<TRANSP> 5
 0.000000e+00 1.000000e+00 0.000000e+00 0.000000e+00 0.000000e+00
 0.000000e+00 6.189569e-01 3.810430e-01 0.000000e+00 0.000000e+00
 0.000000e+00 0.000000e+00 7.188551e-01 2.811449e-01 0.000000e+00
 0.000000e+00 0.000000e+00 0.000000e+00 7.530634e-01 2.469365e-01
 0.000000e+00 0.000000e+00 0.000000e+00 0.000000e+00 0.000000e+00
<ENDHMM>
~h "eo"
<BEGINHMM>
<NUMSTATES> 5
<STATE> 2
<MEAN> 39
 -7.585501e-01 -9.227600e-01 -1.682503e-01 -7.520178e+00 1.201669e+00 7.733199e-01 -4.931690e+00 -2.431934e+00 1.265581e+00 1.831948e+00 6.948117e-01 -4.050522e+00 6.325723e+01 2.114372e+00 -7.494079e-01 -2.589843e-01 -1.674757e+00 -8.725526e-01 1.045577e+00 -1.069684e+00 -2.251766e-01 4.454101e-02 6.673231e-01 6.822683e-01 -8.090159e-01 1.938684e+00 -4.915487e-01 1.140664e-01 1.218235e-01 2.769563e-01 4.609269e-02 -1.175944e-01 2.007926e-01 3.113145e-02 -1.336762e-01 -7.106061e-02 9.277244e-02 1.270891e-01 -2.907653e-01
<VARIANCE> 39
 2.603921e+01 2.214513e+01 2.406004e+01 4.273572e+01 3.816528e+01 5.592706e+01 5.490967e+01 3.093885e+01 3.940334e+01 3.335612e+01 3.835661e+01 2.025663e+01 5.912267e+01 3.667198e+00 2.766360e+00 2.785310e+00 3.699413e+00 3.546964e+00 4.026303e+00 4.061011e+00 3.433435e+00 3.472758e+00 3.084918e+00 2.851721e+00 2.055686e+00 3.010238e+00 6.825336e-01 3.774389e-01 3.761032e-01 6.750308e-01 5.858246e-01 6.673794e-01 6.592510e-01 4.470121e-01 5.043741e-01 4.528677e-01 4.941264e-01 3.454919e-01 5.161563e-01
<GCONST> 1.243814e+02
<STATE> 3
<MEAN> 39
 1.518373e+00 -3.539161e+00 -7.199284e-01 -1.154461e+01 -1.174088e+00 4.125865e+00 -7.253684e+00 -2.655187e+00 5.269826e-01 3.058923e+00 3.842022e+00 -5.377627e+00 6.805722e+01 1.335953e-01 -1.296305e-01 -5.088833e-03 -1.158140e-01 1.110921e-01 1.584613e-01 -7.614835e-02 1.647645e-02 -8.037203e-02 4.671740e-02 2.225261e-01 -1.422133e-01 7.733761e-02 -2.579778e-01 3.609245e-01 2.718742e-01 6.448328e-01 1.744208e-01 -4.328269e-01 1.847229e-01 -1.013799e-02 -9.648786e-02 -1.719972e-01 -2.841245e-01 1.830492e-01 -5.487671e-01
<VARIANCE> 39
 9.817212e+00 1.714326e+01 1.931457e+01 3.915408e+01 2.991792e+01 4.990009e+01 4.847573e+01 3.665880e+01 4.402249e+01 3.884874e+01 4.211653e+01 2.387016e+01 2.527205e+01 5.343108e-01 1.010696e+00 1.066665e+00 2.584926e+00 1.800519e+00 2.646535e+00 2.293810e+00 1.627305e+00 2.276235e+00 1.686205e+00 1.688225e+00 1.256170e+00 8.047440e-01 2.544970e-01 2.427327e-01 2.256435e-01 3.494665e-01 3.794674e-01 3.803940e-01 4.745167e-01 3.999026e-01 3.610864e-01 3.822373e-01 3.656681e-01 2.919130e-01 2.155069e-01
<GCONST> 1.062914e+02
<STATE> 4
<MEAN> 39
 1.687349e+00 -4.626543e-01 -2.535865e-01 -8.362667e+00 1.430030e+00 2.146527e+00 -4.868193e+00 -2.696906e+00 -7.139318e-02 1.268401e+00 2.884338e+00 -4.400899e+00 6.382526e+01 -2.588146e-01 1.073841e+00 8.709115e-01 1.633072e+00 3.530592e-01 -9.394409e-01 2.644250e-01 9.740439e-02 -3.146043e-01 -2.346670e-01 -7.179844e-01 3.109753e-01 -1.632856e+00 -2.791131e-01 3.041881e-01 2.394755e-01 4.199136e-01 -5.339842e-02 -1.298817e-01 2.460256e-01 -4.593231e-02 -2.919809e-02 -9.589604e-02 -1.465370e-01 1.293332e-01 -4.909340e-01
<VARIANCE> 39
 1.277118e+01 2.583465e+01 2.606498e+01 4.614831e+01 4.123690e+01 5.543867e+01 7.058539e+01 4.108778e+01 5.480277e+01 4.700772e+01 4.213950e+01 2.515388e+01 5.401431e+01 1.199560e+00 2.343756e+00 1.838495e+00 3.048895e+00 2.708434e+00 3.030597e+00 2.913920e+00 2.639288e+00 3.027923e+00 2.333185e+00 2.302722e+00 1.683066e+00 2.567884e+00 2.759232e-01 3.661510e-01 3.039029e-01 5.008627e-01 4.744137e-01 5.046352e-01 5.907027e-01 5.193615e-01 5.487771e-01 4.711248e-01 4.388880e-01 3.307521e-01 3.932389e-01
<GCONST> 1.192386e+02
<TRANSP> 5
 0.000000e+00 1.000000e+00 0.000000e+00 0.000000e+00 0.000000e+00
 0.000000e+00 5.064680e-01 4.935320e-01 0.000000e+00 0.000000e+00
 0.000000e+00 0.000000e+00 6.710255e-01 3.289745e-01 0.000000e+00
 0.000000e+00 0.000000e+00 0.000000e+00 5.461353e-01 4.538647e-01
 0.000000e+00 0.000000e+00 0.000000e+00 0.000000e+00 0.000000e+00
<ENDHMM>
~h "eu"
<BEGINHMM>
<NUMSTATES> 5
<STATE> 2
<MEAN> 39
 -1.522097e+00 -9.518921e-01 4.939075e+00 -6.819673e-03 -1.690671e-01 -5.531169e+00 -7.049589e+00 -2.225156e+00 9.140486e-02 3.432847e-01 -1.735837e-01 -3.256874e+00 6.358116e+01 1.381170e+00 -7.093922e-01 5.861292e-01 -4.967969e-01 -1.224373e+00 3.555882e-02 -1.712614e+00 8.327765e-01 -5.010142e-03 -1.195884e-01 5.364740e-01 -5.224747e-01 1.555887e+00 -3.741979e-02 4.623418e-02 -1.557823e-02 6.214863e-02 -8.165150e-02 2.244312e-01 1.002327e-01 -4.959862e-02 -8.629031e-02 8.212205e-02 7.083043e-03 -4.387679e-02 -2.752554e-01
<VARIANCE> 39
 2.699089e+01 2.717269e+01 2.983736e+01 3.293064e+01 3.954804e+01 4.608810e+01 4.344799e+01 3.734436e+01 4.079209e+01 2.801245e+01 3.118007e+01 1.946913e+01 3.396797e+01 4.732630e+00 2.556674e+00 4.028409e+00 3.476085e+00 4.360333e+00 3.349586e+00 3.827831e+00 5.332294e+00 3.900585e+00 3.382862e+00 2.647288e+00 2.053248e+00 1.732554e+00 4.120202e-01 3.007054e-01 3.951927e-01 4.677629e-01 4.561451e-01 4.776664e-01 4.146639e-01 4.269375e-01 4.062252e-01 3.491720e-01 3.354366e-01 2.750165e-01 3.457938e-01
<GCONST> 1.202625e+02
<STATE> 3
<MEAN> 39
 3.152733e-01 -2.819172e+00 5.515880e+00 -1.258636e+00 -2.774880e+00 -4.168506e+00 -9.992499e+00 -7.745073e-01 -1.854597e-01 5.965000e-01 1.146167e+00 -4.134544e+00 6.589127e+01 7.018822e-01 -6.387762e-01 2.985133e-01 -2.538095e-01 -8.899059e-01 3.071163e-01 -1.018090e+00 6.068241e-01 3.078918e-02 3.705968e-02 3.597704e-01 -3.774305e-01 7.792197e-01 -2.988215e-01 3.297540e-01 -6.783151e-02 3.244053e-01 3.135203e-01 3.354135e-02 6.287055e-01 -3.780266e-01 -6.102045e-02 6.427394e-02 -2.249484e-01 1.255330e-01 -6.393377e-01
<VARIANCE> 39
 1.574875e+01 2.577347e+01 3.306813e+01 3.564813e+01 4.046023e+01 5.300150e+01 5.072274e+01 5.084494e+01 5.135049e+01 3.556353e+01 4.178989e+01 2.242486e+01 2.904055e+01 2.082148e+00 1.720930e+00 2.309418e+00 2.581227e+00 2.932939e+00 2.705031e+00 2.759107e+00 3.936688e+00 3.389290e+00 2.449296e+00 2.159291e+00 1.580257e+00 1.115853e+00 4.374050e-01 3.185168e-01 4.827053e-01 4.909534e-01 6.535584e-01 5.657368e-01 5.309574e-01 6.651579e-01 5.404038e-01 4.996083e-01 4.575247e-01 3.332847e-01 2.771789e-01
<GCONST> 1.190546e+02
<STATE> 4
<MEAN> 39
 -7.131343e-02 -2.921891e+00 5.042781e+00 -1.992875e+00 -2.459733e+00 -3.936477e+00 -1.013858e+01 1.124596e+00 -2.524411e-01 3.982742e-01 4.469011e-01 -4.856815e+00 6.668962e+01 1.764710e-01 1.967463e-01 1.428473e-01 3.724731e-01 2.230644e-03 1.465537e-02 3.133116e-01 -2.611855e-01 -1.939708e-01 1.219215e-01 -1.014288e-01 -9.210608e-02 -3.671697e-01 -7.114401e-02 2.913533e-01 9.481994e-02 3.209905e-01 1.582691e-01 -3.119799e-02 4.364314e-01 -4.567297e-01 -1.000819e-01 7.327159e-02 -1.509887e-01 1.046355e-01 -4.802027e-01
<VARIANCE> 39
 1.184579e+01 2.107514e+01 2.869113e+01 2.992768e+01 3.751543e+01 4.343091e+01 5.189468e+01 5.901978e+01 5.456428e+01 3.402262e+01 4.004354e+01 2.195136e+01 2.734079e+01 6.086805e-01 1.003000e+00 1.220576e+00 1.613851e+00 1.633646e+00 1.808250e+00 1.660532e+00 2.086368e+00 2.079887e+00 1.385920e+00 1.377595e+00 1.047177e+00 9.566250e-01 2.325502e-01 1.998324e-01 2.869622e-01 3.077220e-01 4.231803e-01 3.655199e-01 4.145931e-01 5.785391e-01 3.997974e-01 3.546336e-01 3.096707e-01 2.369128e-01 1.693198e-01
<GCONST> 1.057485e+02
<TRANSP> 5
 0.000000e+00 1.000000e+00 0.000000e+00 0.000000e+00 0.000000e+00
 0.000000e+00 1.710432e-01 8.289568e-01 0.000000e+00 0.000000e+00
 0.000000e+00 0.000000e+00 1.210874e-01 8.789126e-01 0.000000e+00
 0.000000e+00 0.000000e+00 0.000000e+00 5.539580e-01 4.460420e-01
 0.000000e+00 0.000000e+00 0.000000e+00 0.000000e+00 0.000000e+00
<ENDHMM>
~h "gg"
<BEGINHMM>
<NUMSTATES> 5
<STATE> 2
<MEAN> 39
 -3.064491e+00 8.428055e+00 5.275434e+00 2.109718e+00 1.537675e+00 -3.323841e+00 -2.142333e+00 -2.543604e+00 -2.720678e+00 8.930392e-01 -4.878035e-01 -2.254708e+00 4.617752e+01 -1.335010e+00 5.883148e-01 2.869955e-01 1.317818e+00 5.288539e-01 2.448365e-01 2.372137e-01 -3.055303e-01 6.171429e-01 -5.643801e-01 -5.194271e-01 4.391340e-01 -2.630124e+00 -1.212710e-01 -8.251522e-01 -3.000328e-01 -3.898031e-01 4.632091e-02 1.875650e-01 -1.966163e-02 1.721068e-01 -1.189349e-01 -1.143633e-02 8.412135e-02 -1.432318e-01 1.020303e+00
<VARIANCE> 39
 2.200854e+01 1.887635e+01 2.452147e+01 2.832176e+01 3.387571e+01 3.136060e+01 3.160041e+01 2.785557e+01 2.984936e+01 2.452652e+01 2.370324e+01 1.641849e+01 3.313185e+01 1.428064e+00 3.265342e+00 3.145760e+00 2.919635e+00 3.860757e+00 3.775576e+00 3.167673e+00 2.958951e+00 3.326167e+00 2.764052e+00 2.757628e+00 1.922376e+00 3.522163e+00 3.013928e-01 5.962636e-01 6.283617e-01 6.944246e-01 7.487888e-01 6.081713e-01 6.328001e-01 5.966443e-01 6.204975e-01 5.801485e-01 4.699357e-01 3.741404e-01 7.759849e-01
<GCONST> 1.205586e+02
<STATE> 3
<MEAN> 39
 -7.740083e+00 6.395442e+00 5.270589e+00 5.308526e+00 4.320835e+00 4.227150e-02 -3.349362e-02 -1.500169e+00 -1.488425e+00 -8.105552e-01 -1.350919e+00 -2.032510e+00 4.130096e+01 -9.221925e-01 -2.081687e+00 -2.205861e+00 -2.075634e+00 5.609586e-01 1.550138e-01 1.374986e-01 5.877420e-01 -7.379454e-02 4.147539e-01 -1.364358e-01 -5.926042e-02 2.238572e+00 3.048024e-01 -3.904647e-01 -5.716770e-01 -1.081906e+00 -2.756366e-01 -3.837399e-01 -3.076621e-01 8.034006e-03 -1.755540e-01 3.235213e-01 1.479533e-01 -8.583089e-02 1.551544e+00
<VARIANCE> 39
 1.442154e+01 1.302612e+01 1.391080e+01 1.326291e+01 1.524697e+01 1.749456e+01 1.888504e+01 1.855539e+01 1.630366e+01 1.404164e+01 1.386026e+01 1.106082e+01 1.749678e+01 1.969620e+00 3.032964e+00 4.721077e+00 5.651869e+00 3.913294e+00 3.011531e+00 2.848600e+00 2.668953e+00 2.301103e+00 2.033638e+00 1.788915e+00 1.480881e+00 6.591363e+00 3.266610e-01 4.289066e-01 7.010918e-01 6.098930e-01 5.319792e-01 5.391169e-01 4.759229e-01 4.881270e-01 4.540761e-01 4.012719e-01 4.102105e-01 3.074638e-01 5.252199e-01
<GCONST> 1.109332e+02
<STATE> 4
<MEAN> 39
 -9.372969e+00 -1.981456e+00 -5.824138e+00 -7.721469e+00 5.024337e+00 -2.784127e+00 -2.100108e+00 -5.225093e-01 -2.729446e+00 2.838154e+00 -1.453002e+00 -2.269475e+00 5.758612e+01 8.817520e-01 -6.868649e-01 -4.736484e-01 -2.040552e+00 -9.167253e-01 -5.639188e-01 -8.795910e-01 -5.251244e-02 -4.629484e-01 2.978836e-01 5.926208e-01 -5.747117e-01 3.852463e+00 8.619447e-01 6.962773e-01 1.442531e+00 9.064962e-01 -7.442642e-01 6.684227e-02 -2.367971e-01 -1.753766e-01 -7.746013e-03 -3.905217e-01 4.004594e-01 -2.363578e-01 -4.640598e-01
<VARIANCE> 39
 2.974961e+01 2.920229e+01 6.048476e+01 5.003255e+01 4.873503e+01 3.870561e+01 3.616756e+01 3.498607e+01 3.331299e+01 2.640906e+01 2.401577e+01 1.885455e+01 4.374503e+01 3.864478e+00 4.267288e+00 9.179001e+00 6.855446e+00 5.137890e+00 3.667805e+00 3.679789e+00 3.651951e+00 3.505067e+00 3.162086e+00 2.995623e+00 2.367958e+00 4.902263e+00 4.255165e-01 6.111710e-01 8.448010e-01 1.024200e+00 1.000642e+00 7.893759e-01 9.857490e-01 9.178072e-01 6.972879e-01 5.993218e-01 4.877865e-01 4.696802e-01 6.557665e-01
<GCONST> 1.316561e+02
<TRANSP> 5
 0.000000e+00 1.000000e+00 0.000000e+00 0.000000e+00 0.000000e+00
 0.000000e+00 7.193962e-01 2.806038e-01 0.000000e+00 0.000000e+00
 0.000000e+00 0.000000e+00 6.278600e-01 3.721400e-01 0.000000e+00
 0.000000e+00 0.000000e+00 0.000000e+00 6.547349e-01 3.452651e-01
 0.000000e+00 0.000000e+00 0.000000e+00 0.000000e+00 0.000000e+00
<ENDHMM>
~h "jj"
<BEGINHMM>
<NUMSTATES> 5
<STATE> 2
<MEAN> 39
 -5.882946e+00 8.407887e+00 7.653212e+00 3.177417e+00 3.364785e+00 -3.631010e+00 -2.732770e+00 -2.763352e+00 -9.942983e-01 -6.941879e-01 -8.742979e-01 -1.763287e+00 4.645795e+01 -1.794576e+00 -6.036046e-01 -6.020956e-01 -2.842942e-01 2.943837e-01 8.130693e-01 6.037245e-01 1.087693e-01 -2.218880e-01 -2.466479e-01 1.364279e-01 7.317484e-02 -6.955116e-01 -4.566809e-01 -7.136873e-01 -2.625575e-01 -5.759037e-01 -2.019616e-01 -1.700599e-02 -1.655718e-01 7.493072e-02 1.239825e-01 2.271421e-02 4.585021e-02 3.931855e-02 1.347715e+00
<VARIANCE> 39
 2.471637e+01 2.125587e+01 1.807384e+01 1.994720e+01 2.508642e+01 2.920167e+01 2.636237e+01 2.107023e+01 2.214154e+01 1.780057e+01 1.485547e+01 1.208356e+01 4.972440e+01 3.810485e+00 5.764781e+00 2.515521e+00 4.148130e+00 3.256293e+00 2.887755e+00 2.741239e+00 2.545514e+00 2.404342e+00 2.020705e+00 1.789780e+00 1.470841e+00 1.256602e+01 5.650631e-01 6.865914e-01 3.905275e-01 5.266388e-01 6.204286e-01 6.165342e-01 5.088520e-01 4.848464e-01 4.577035e-01 3.766987e-01 3.483485e-01 2.953427e-01 1.060206e+00
<GCONST> 1.176543e+02
<STATE> 3
<MEAN> 39
 -2.037901e+01 8.337529e-01 2.364098e+00 -5.598265e+00 3.361369e+00 -2.324665e+00 -1.595691e+00 -1.023849e+00 4.885104e-02 -1.389707e+00 2.400935e-01 -3.925274e-01 6.004049e+01 -1.431044e+00 -3.189329e-01 -2.991455e-01 -1.275987e+00 -7.682946e-01 -7.167476e-01 -4.793601e-01 3.550801e-01 6.361852e-01 -6.686101e-02 -1.240916e-01 2.359343e-01 2.975385e+00 1.791561e+00 3.621864e-01 5.959371e-01 7.242054e-01 -3.308526e-01 -3.728897e-01 -4.860793e-01 -1.763410e-01 -1.667699e-02 6.759189e-02 -1.709365e-01 -2.188882e-01 -5.258266e-01
<VARIANCE> 39
 2.472746e+01 2.874924e+01 2.598374e+01 2.191482e+01 3.157459e+01 2.971437e+01 2.398907e+01 2.048404e+01 1.550663e+01 1.446144e+01 1.158477e+01 1.029648e+01 2.962765e+01 9.720979e+00 3.076355e+00 3.627399e+00 4.250689e+00 2.677124e+00 2.648745e+00 2.590456e+00 2.145459e+00 1.924710e+00 1.576244e+00 1.458588e+00 1.260654e+00 4.834676e+00 1.128614e+00 8.224530e-01 5.595103e-01 5.623876e-01 7.062853e-01 6.058892e-01 5.872194e-01 4.658679e-01 4.662188e-01 3.985735e-01 3.394413e-01 3.004356e-01 5.617539e-01
<GCONST> 1.163966e+02
<STATE> 4
<MEAN> 39
 -1.156671e+01 1.000038e+00 5.931373e+00 -3.290515e+00 -7.366435e-01 -6.200195e+00 -6.901174e+00 -1.561338e+00 2.300173e+00 -1.687052e+00 -2.355819e+00 -1.309488e+00 6.404649e+01 5.449131e+00 -1.318731e+00 8.407723e-01 5.765234e-01 -1.538483e+00 -9.834509e-01 -2.649140e+00 -3.938697e-01 4.831010e-02 6.050908e-01 -8.590080e-02 -9.591158e-01 1.640368e+00 4.316677e-01 -3.110713e-01 -2.692211e-01 -1.224557e-01 1.219221e-01 5.131810e-01 6.009686e-02 1.725494e-02 -4.301885e-01 2.281158e-01 4.379823e-01 -1.800071e-01 -3.189389e-01
<VARIANCE> 39
 6.961221e+01 2.414446e+01 1.843750e+01 2.230301e+01 2.802208e+01 2.646498e+01 4.486418e+01 2.808067e+01 2.260296e+01 1.919746e+01 1.393985e+01 1.273347e+01 3.140961e+01 1.792889e+00 3.927918e+00 4.004172e+00 3.177315e+00 4.333042e+00 3.633174e+00 3.280034e+00 3.654387e+00 4.286511e+00 3.421051e+00 3.284600e+00 1.897033e+00 1.324910e+00 1.827627e+00 4.461066e-01 3.508745e-01 4.839821e-01 4.948733e-01 4.971848e-01 7.406269e-01 4.509678e-01 4.967001e-01 4.153458e-01 3.465210e-01 3.071761e-01 3.081008e-01
<GCONST> 1.186296e+02
<TRANSP> 5
 0.000000e+00 1.000000e+00 0.000000e+00 0.000000e+00 0.000000e+00
 0.000000e+00 8.061166e-01 1.938834e-01 0.000000e+00 0.000000e+00
 0.000000e+00 0.000000e+00 7.258362e-01 2.741638e-01 0.000000e+00
 0.000000e+00 0.000000e+00 0.000000e+00 5.068043e-01 4.931957e-01
 0.000000e+00 0.000000e+00 0.000000e+00 0.000000e+00 0.000000e+00
<ENDHMM>
~h "ng"
<BEGINHMM>
<NUMSTATES> 5
<STATE> 2
<MEAN> 39
 2.088562e+00 -1.008854e+00 3.141418e+00 -2.884944e+00 -1.851774e+00 -9.171851e-01 -1.618106e+00 -6.386476e-01 -6.496229e+00 2.945645e+00 7.863994e-01 -6.838170e+00 6.401124e+01 4.395077e-01 6.288809e-01 1.001221e+00 1.083957e+00 -1.236724e+00 -1.413064e-01 1.075659e+00 -1.164199e+00 -7.636084e-01 7.475161e-01 -6.115025e-01 1.170033e-01 -9.935086e-01 -1.858970e-01 -6.539372e-02 1.224890e-01 4.906547e-02 2.038390e-03 -5.329129e-02 -1.049060e-01 -8.928506e-02 4.582826e-01 -1.776019e-01 -1.476579e-01 1.606695e-01 4.796486e-02
<VARIANCE> 39
 9.610027e+00 2.007765e+01 3.597597e+01 3.872500e+01 5.040102e+01 4.591883e+01 5.299928e+01 5.344070e+01 5.744552e+01 4.165159e+01 5.167557e+01 2.506843e+01 2.358021e+01 6.878878e-01 1.153349e+00 2.221349e+00 2.650489e+00 2.823568e+00 3.286218e+00 3.119303e+00 3.116286e+00 3.726826e+00 2.570889e+00 2.829839e+00 2.101488e+00 6.898454e-01 1.097395e-01 1.535953e-01 3.025090e-01 3.656816e-01 5.436619e-01 4.934225e-01 5.241060e-01 5.123908e-01 4.792860e-01 4.147091e-01 4.449612e-01 3.174062e-01 1.155601e-01
<GCONST> 1.130504e+02
<STATE> 3
<MEAN> 39
 2.472569e+00 1.748853e-01 6.663482e+00 -5.187405e-01 -4.912306e+00 -7.461745e-01 -1.190618e-01 -4.619689e+00 -4.323606e+00 2.948352e+00 -1.927492e+00 -5.687991e+00 6.182310e+01 6.933831e-03 3.072867e-01 5.250629e-01 5.243016e-01 -2.659335e-01 -2.119742e-01 1.118248e-01 -4.775701e-01 -6.636724e-02 1.362972e-01 -8.091073e-02 7.770005e-02 -3.970936e-01 -1.238114e-01 2.247595e-02 -2.331480e-01 -2.063233e-01 3.246413e-01 2.923044e-02 -1.660223e-01 2.016615e-01 1.052419e-02 -1.529743e-01 2.411371e-01 -1.740392e-02 9.623855e-02
<VARIANCE> 39
 8.915894e+00 1.865417e+01 3.087534e+01 3.861719e+01 4.396964e+01 3.783605e+01 4.072783e+01 4.363116e+01 5.453697e+01 4.004818e+01 4.341228e+01 2.610670e+01 2.159911e+01 3.009123e-01 6.458789e-01 1.166057e+00 1.329588e+00 1.446556e+00 1.398664e+00 1.447587e+00 1.490205e+00 1.521671e+00 1.297930e+00 1.370652e+00 1.034400e+00 4.468515e-01 8.808340e-02 1.402635e-01 2.221781e-01 2.710059e-01 3.419504e-01 3.078875e-01 3.616968e-01 3.560710e-01 3.844632e-01 3.192539e-01 3.050128e-01 2.478308e-01 1.012444e-01
<GCONST> 9.859225e+01
<STATE> 4
<MEAN> 39
 2.165809e+00 1.615187e+00 6.033144e+00 7.039137e-01 -3.765442e+00 -1.868421e+00 1.860453e-01 -4.440585e+00 -6.279429e+00 3.430552e+00 -5.375988e-02 -6.277523e+00 6.090370e+01 -6.807953e-01 6.783271e-01 2.251261e-01 -3.687395e-01 8.380150e-01 1.045460e-02 -4.392600e-01 2.475236e-01 1.076827e-01 -4.124699e-01 4.838135e-01 1.625492e-01 -3.101971e-01 -3.850997e-01 -6.276433e-02 -4.232146e-02 -3.006165e-01 2.959071e-01 5.779926e-02 -2.738296e-01 3.029423e-01 2.934577e-01 -2.557913e-01 3.305418e-02 1.358715e-01 1.484230e-01
<VARIANCE> 39
 1.182641e+01 2.118992e+01 3.508904e+01 4.801166e+01 4.846155e+01 4.052875e+01 4.280399e+01 4.819768e+01 5.301359e+01 4.063478e+01 4.845035e+01 2.374548e+01 3.456976e+01 1.046557e+00 1.928075e+00 2.308686e+00 2.611809e+00 3.263856e+00 2.567494e+00 2.664811e+00 2.617379e+00 2.691390e+00 2.293248e+00 2.123955e+00 1.670745e+00 1.808934e+00 2.741069e-01 2.441788e-01 3.685763e-01 5.193418e-01 5.756770e-01 4.889514e-01 5.051606e-01 5.114056e-01 4.705811e-01 4.607626e-01 4.259869e-01 3.284403e-01 2.236177e-01
<GCONST> 1.163857e+02
<TRANSP> 5
 0.000000e+00 1.000000e+00 0.000000e+00 0.000000e+00 0.000000e+00
 0.000000e+00 4.453715e-01 5.546285e-01 0.000000e+00 0.000000e+00
 0.000000e+00 0.000000e+00 6.755228e-01 3.244772e-01 0.000000e+00
 0.000000e+00 0.000000e+00 0.000000e+00 4.776422e-01 5.223578e-01
 0.000000e+00 0.000000e+00 0.000000e+00 0.000000e+00 0.000000e+00
<ENDHMM>
~h "oe"
<BEGINHMM>
<NUMSTATES> 5
